tree
version=v4
num_class=1
num_tree_per_iteration=1
label_index=0
max_feature_idx=8
objective=lambdarank
feature_names=skill_jaccard goals_cosine exp_gap same_industry seniority_gap conn_ratio exp_sum mentorship remote_match
feature_infos=[0:0.55000001192092896] [0:1] [0:29] [0:1] [0:3] [1:99.379997253417969] [2:60] [0:1] [0:2]
tree_sizes=3294 3435 3514 3302 3516 3368 3205 3192 3387 3407 3394 3506 3210 3500 3503 3484 3496 3281 3503 3504 3464 3499 3485 3500 3533 3492 3497 3394 3542 3398 3543 3512 3495 3493 3502 3503 3489 3499 3393 3320 3303 3396 3467 3476 3550 3510 3503 3494 3395 3555 3499 3542 3494 3511 3516 3535 3545 3502 3527 3405 2954 3399 3539 3527 3183 3515 3498 3537 3501 3499 3538 3561 3540 3531 3524 3485 3509 3510 3455 3513 3554 3544 3515 3500 3492 3511 3528 3557 3533 3517 3496 3542 3516 3541 3422 3510 3245 3551 3513 3507 3527 3288 3559 3487 3548 3527 3500 3169 2861 3524 3530 3518 3493 3489 3497 3557 3476 3498 3500 3543 3438 3511 3094 3524 3523 3533 3507 3517 3486 3480 3514 3478 3301 3513 3494 3508 3524 3544 3519 3472 3507 3530 3409 3488 3496 3504 3525 3354 3503 3498 3492 3479 3533 3533 3517 3498 3492 3519 3131 3533 3348 3498 3382 3463 3495 3501 3501 3523 3479 3436 3312 3556 3406 3502 3516 3481 3428 3529 3456 3476 3524 3536 3524 3511 3365 3529 3477 3490 3373 3474 3520 3490 3530 3184 3518 3398 3095 3432 3535 3527 3501 3383 3539 3540 3533 3559 3491 3523 3338 3513 3278 3550 3439 3519 3501 3485 3525 3546 3491 3537 3318 3534 3406 3533 3406 3522 3516 3339 3395 3527 3441 3549

Tree=0
num_leaves=29
num_cat=0
split_feature=4 6 3 3 6 0 6 1 0 0 3 6 6 3 4 0 4 4 0 8 6 6 0 0 0 6 6 8
split_gain=5914.21 4840.02 2951.08 2600.78 1231.79 809.18 736.864 516.556 442.743 403.09 342.395 236.788 198.697 178.817 145.054 70.6593 48.1719 40.0348 32.5086 36.601 14.6226 12.8755 11.1227 10.5854 9.66677 4.85311 4.16956 3.8589
threshold=1.5000000000000002 10.500000000000002 1.0000000180025095e-35 1.0000000180025095e-35 11.500000000000002 0.12060606107115747 4.5000000000000009 0.41494706273078924 0.11952380836009981 0.16064515709877017 1.0000000180025095e-35 22.500000000000004 15.500000000000002 1.0000000180025095e-35 2.5000000000000004 0.21807064861059192 1.0000000180025095e-35 2.5000000000000004 0.13574938476085666 1.0000000180025095e-35 4.5000000000000009 11.500000000000002 0.040833333507180221 0.069366481155157103 0.12861869484186175 9.5000000000000018 19.500000000000004 1.0000000180025095e-35
decision_type=2 2 2 2 2 2 2 2 2 2 2 2 2 2 2 2 2 2 2 2 2 2 2 2 2 2 2 2
left_child=1 3 4 6 18 10 16 13 -8 14 11 -3 -9 -7 -6 -11 -1 21 19 -2 22 -4 -5 26 -23 -20 -19 -25
right_child=2 5 17 20 9 7 8 12 -10 15 -12 -13 -14 -15 -16 -17 -18 23 25 -21 -22 24 -24 27 -26 -27 -28 -29
leaf_value=-0.098869917804824251 0.025767712927540928 0.0019728190071802041 0.091148211789612132 0.037385325452614353 -0.06604560380160257 0.049140161351747216 -0.046770634869820665 0.023237541068619125 0.00885927387123976 -0.043878576741082809 0.096087443127983424 0.046263560562913121 0.097753931646936215 0.098845728586600956 -0.088428832521774248 -0.00994689806625834 -0.057945869039030054 0.047822282694781948 0.048176848287125089 -0.0061040983682586611 0.093105647826851171 0.060485999581149044 0.079475521627083004 0.068603678607597862 0.079762664011436224 0.024008070333017911 0.013159744632468898 0.046373813045917922
leaf_weight=542.87854735965084 119.81485104328021 889.09099382534623 97.575717104366049 23.076792819425464 1812.0447571100231 1995.0992089294596 1181.0040141843929 96.647667410550639 512.53899018955417 547.5651982051495 152.01690261333715 456.55445766675984 1300.7161911223666 199.45171716518234 1224.384697851754 214.14038204355165 86.591803223767783 12.138598396442829 25.868568043457344 357.66235648258589 330.40403878176585 165.45842323428951 66.142516551073641 31.542109652422369 130.83154412941076 129.78374896210153 31.868413049262017 85.926968734245747
leaf_count=37924 3668 48576 1665 1170 94322 100153 66782 5420 26613 30136 5449 24014 63286 7735 64036 11441 4886 378 736 13279 7228 5386 2087 810 4147 4374 1393 2944
internal_value=1.51648e-05 0.0271141 -0.0425452 -0.0264252 -0.0561632 0.0559657 -0.0471226 0.0688395 -0.029934 -0.0669251 0.025074 0.0170152 0.0926138 0.0536814 -0.075086 -0.0343586 -0.0932987 0.066061 0.00839165 0.00190172 0.088062 0.0747097 0.0689135 0.0447691 0.0691348 0.0281982 0.023263 0.0526507
internal_weight=12818.8 7832.21 4986.61 2742.64 4431.26 5089.58 2323.01 3591.91 1693.54 3798.14 1497.66 1345.65 1397.36 2194.55 3036.43 761.706 629.47 555.342 633.13 477.477 419.623 393.866 89.2193 161.476 296.29 155.652 44.007 117.469
internal_count=640038 401323 238715 146690 221992 254633 136205 176594 93395 199935 78039 72590 68706 107888 158358 41577 42810 16723 22057 16947 10485 11198 3257 5525 9533 5110 1771 3754
is_linear=0
shrinkage=0.05


Tree=1
num_leaves=30
num_cat=0
split_feature=2 6 4 2 0 0 7 6 0 4 7 2 0 8 0 6 0 0 2 6 0 0 0 6 0 8 8 6 0
split_gain=10966 8633.04 3160.24 2861.12 1494.38 1235.41 814.248 612.47 511.241 942.094 437.77 323.075 250.379 231.862 183.373 182.944 181.092 179.541 158.41 132.906 69.7175 68.1313 56.6971 33.9752 24.5453 20.697 13.2218 11.4522 10.4564
threshold=7.5000000000000009 14.500000000000002 1.5000000000000002 2.5000000000000004 0.12060606107115747 0.12158167362213136 1.0000000180025095e-35 4.5000000000000009 0.17445652186870578 1.0000000180025095e-35 1.0000000180025095e-35 15.500000000000002 0.16064515709877017 1.0000000180025095e-35 0.098780486732721343 30.500000000000004 0.17752101272344592 0.1234756112098694 2.5000000000000004 23.500000000000004 0.17316342145204547 0.086335405707359328 0.15075758099555972 19.500000000000004 0.04446640424430371 1.0000000180025095e-35 1.0000000180025095e-35 19.500000000000004 0.098780486732721343
decision_type=2 2 2 2 2 2 2 2 2 2 2 2 2 2 2 2 2 2 2 2 2 2 2 2 2 2 2 2 2
left_child=1 3 4 7 19 15 14 21 13 -10 -7 12 24 -6 -5 18 -9 -8 -3 27 -12 -1 26 -14 -4 -24 -13 -2 -21
right_child=2 5 11 6 8 10 17 16 9 -11 20 22 23 -15 -16 -17 -18 -19 -20 28 -22 -23 25 -25 -26 -27 -28 -29 -30
leaf_value=-0.071004757138113328 -0.040795613482300472 -0.02934024479740845 -0.063684069516097022 -0.0059470409569779351 0.024531454686188475 0.095223996692192711 0.031368046353505034 -0.026410052611037394 0.094329762342924062 0.0082182443913109242 0.048640624142017329 -0.067633342919779418 -0.013554457971926793 -0.020409447118924683 0.018364678391344293 0.095781665680746156 0.011896861068911135 0.060875600863505942 0.024356513208017058 -0.087650227739310582 0.07249949855718843 -0.046725224652199332 -0.045270046116661578 -0.037653531335733015 -0.052457305960765803 -0.064018682895259332 -0.077137849250279986 -0.057733504552970938 -0.069852977655720974
leaf_weight=885.96571187861264 419.53039415273815 195.98630253979354 669.28285740109277 1597.5031709070317 352.75176587354872 3661.5236617813389 1019.383469688386 1923.0564803314919 386.66923674882855 1769.8893844063568 610.26194305808895 527.79258552964166 462.79643525803112 1529.174311183011 1506.3440417735837 65.154199954529759 366.96163369221176 1049.1483678255026 455.66538671645685 295.89519525205833 631.07260109845811 437.98768923897296 198.25046764058061 214.82832014574888 2025.134705649114 683.29244932622532 1740.0703329584612 139.32423260749056 140.8796701975516
leaf_count=31900 10594 8012 20509 37273 6662 70717 19732 47711 6073 34749 8733 18399 10767 23139 26969 6207 7090 13574 20579 7015 8522 14167 6948 9461 67145 23904 64461 3885 5141
internal_value=5.36052e-05 0.0291574 -0.0362285 -0.00179783 -0.0064654 0.0775526 0.0220504 -0.0359295 0.00706169 0.0236786 0.086516 -0.0592006 -0.0484253 -0.0119787 0.00585125 0.0162192 -0.0202682 0.0463476 0.00818926 -0.0613152 0.0607984 -0.0629971 -0.0707266 -0.0212241 -0.0552591 -0.059836 -0.0749435 -0.0450751 -0.0820077
internal_weight=25961.6 14406 11555.6 8786.35 5034.11 5619.66 5172.38 3613.97 4038.48 2156.56 4902.86 6521.45 3372.04 1881.93 3103.85 716.806 2290.02 2068.53 651.652 995.629 1241.33 1323.95 3149.41 677.625 2694.42 881.543 2267.86 558.855 436.775
internal_count=640038 321186 318852 198416 97258 122770 97548 100868 70623 40822 87972 221594 107882 29801 64242 34798 54801 33306 28591 26635 17255 46067 113712 20228 87654 30852 82860 14479 12156
is_linear=0
shrinkage=0.05


Tree=2
num_leaves=31
num_cat=0
split_feature=2 6 3 3 0 3 4 6 2 2 2 2 0 2 7 6 0 2 0 0 4 8 0 0 8 4 0 4 0 2
split_gain=18851 9105.93 7970.61 5018.44 2419.55 1818.49 1629.9 1059.51 958.617 557.616 544.435 536.661 326.101 285.197 245.93 153.071 125.526 110.559 96.8266 81.7564 59.8459 57.2576 54.2264 42.1791 24.1979 14.548 11.2591 11.1948 8.4179 0.954492
threshold=7.5000000000000009 9.5000000000000018 1.0000000180025095e-35 1.0000000180025095e-35 0.12060606107115747 1.0000000180025095e-35 1.0000000180025095e-35 16.500000000000004 6.5000000000000009 2.5000000000000004 2.5000000000000004 2.5000000000000004 0.17445652186870578 15.500000000000002 1.0000000180025095e-35 4.5000000000000009 0.24662162363529208 15.500000000000002 0.086335405707359328 0.12060606107115747 1.5000000000000002 1.0000000180025095e-35 0.12060606107115747 0.069366481155157103 1.0000000180025095e-35 1.5000000000000002 0.065591398626565947 1.5000000000000002 0.0745370388031006 2.5000000000000004
decision_type=2 2 2 2 2 2 2 2 2 2 2 2 2 2 2 2 2 2 2 2 2 2 2 2 2 2 2 2 2 2
left_child=1 2 8 6 5 10 12 11 9 -1 -3 -6 21 19 -9 18 22 -18 -4 25 28 -2 -8 -22 -10 -5 -17 -21 -15 -7
right_child=3 4 15 13 7 29 16 14 24 -11 -12 -13 -14 20 -16 26 17 -19 -20 27 23 -23 -24 -25 -26 -27 -28 -29 -30 -31
leaf_value=-0.084750520299899088 0.085136177836776211 -0.070846044285596321 -0.0023689791854808566 0.071544975915654827 -0.0011609770039026379 0.079612172371241241 -0.086989505624702923 0.089176321032143555 0.052307603731332843 -0.045961875832557682 0.00067309861932581341 0.056878867698245163 0.087074229925609078 -0.045825241074566855 0.060105149688294904 0.07280583935834592 -0.018653965064871821 -0.080882662267715635 0.063222938380543311 0.090421115618492379 -0.043627789448466556 -0.041386590157707813 -0.077749127031089479 0.00673224813714651 0.020457937679373175 0.038828767112454199 0.082522346779369649 0.071589450248481276 0.090343794665561944 0.090976542763118173
leaf_weight=1744.7899141795933 9.4822066853957931 336.17320664050931 99.623927843756974 40.538026081398129 494.50345491717599 63.262025458512653 3512.8505227074347 4660.2758180666278 84.29543798416853 1982.7437778112944 1268.7202048376566 2042.3005748311407 168.32640952244401 0.85935421785689214 868.90667274261068 548.53053461760283 148.74523546521232 137.89261463304865 128.24727454409003 145.90330509132036 51.721872184076346 85.997456182172755 3066.1978350557183 203.22027033742052 208.9886824793648 250.36782613472315 888.40385944023728 232.59476899871515 20.01179602384218 503.98857580330514
leaf_count=75114 900 19229 2285 1607 11440 1505 145131 71599 687 53600 41860 20503 5633 67 9867 3159 9378 5606 972 4116 1884 3390 126354 6159 2546 4689 3685 2813 1125 3135
internal_value=-7.35404e-06 0.0315486 -0.0191874 -0.062236 0.0597242 0.0128784 -0.0765884 0.0723375 -0.0572801 -0.0641284 -0.0143221 0.0455651 0.0452901 0.0459979 0.0846146 0.0728002 -0.0812751 -0.0486964 0.0345822 0.0636166 0.00318114 -0.0283913 -0.08269 -0.00353046 0.0297026 0.0435199 0.0788433 0.0789716 0.0835622 0.0897892
internal_weight=23998.5 15923.8 5685.62 8074.71 10238.1 2172.14 7129.49 8065.99 4020.82 3727.53 1604.89 2536.8 263.806 945.217 5529.18 1664.81 6865.69 286.638 227.871 669.404 275.813 95.4797 6579.05 254.942 293.284 290.906 1436.93 378.498 20.8712 567.251
internal_count=640038 321186 142048 318852 179138 65729 296392 113409 131947 128714 61089 31943 9923 22460 81466 10101 286469 14984 3257 13225 9235 4290 271485 8043 3233 6296 6844 6929 1192 4640
is_linear=0
shrinkage=0.05


Tree=3
num_leaves=29
num_cat=0
split_feature=2 6 3 3 7 1 7 3 2 2 8 8 6 5 1 7 2 5 8 7 8 2 2 6 7 8 8 5
split_gain=12906.1 7498.18 6753.3 6680.47 3847.53 1436.39 993.634 567.637 535.416 198.367 161.374 153.749 151.525 77.534 61.8522 57.8031 76.802 53.2476 39.5028 35.3926 28.7316 21.4311 6.96748 6.18561 4.40546 2.56718 2.46315 1.7628
threshold=7.5000000000000009 14.500000000000002 1.0000000180025095e-35 1.0000000180025095e-35 1.0000000180025095e-35 0.41494706273078924 1.0000000180025095e-35 1.0000000180025095e-35 2.5000000000000004 15.500000000000002 1.0000000180025095e-35 1.0000000180025095e-35 6.5000000000000009 5.197726011276246 0.36073699593544012 1.0000000180025095e-35 15.500000000000002 4.1313459873199472 1.0000000180025095e-35 1.0000000180025095e-35 1.0000000180025095e-35 15.500000000000002 2.5000000000000004 19.500000000000004 1.0000000180025095e-35 1.5000000000000002 1.0000000180025095e-35 3.6783293485641484
decision_type=2 2 2 2 2 2 2 2 2 2 2 2 2 2 2 2 2 2 2 2 2 2 2 2 2 2 2 2
left_child=1 2 4 5 8 15 22 10 -1 13 -8 -6 14 27 -4 16 -2 24 -19 -14 -7 -17 26 -15 -11 -22 -3 -5
right_child=3 6 12 9 11 20 7 -9 -10 17 -12 -13 19 23 -16 21 -18 18 -20 -21 25 -23 -24 -25 -26 -27 -28 -29
leaf_value=-0.078033231826766539 -0.049543163943799498 0.083932842428102047 0.056943571424692099 0.08438849196525823 0.047736458451767175 0.081924522164719987 0.05438394164240748 0.08877757090080643 -0.041294074922846882 0.081180537601996214 0.013680477258731769 0.016279262949739328 0.069978293111730108 0.05051659474211706 0.022803255958519713 -0.076055822467857581 -0.080872770425644933 0.040590601521482958 1.1980336045178364e-05 0.085050623799873715 0.043681489277681701 -0.082573673874264619 0.083933102830351047 0.070369854031836265 0.049599947558462122 0.031107242235801431 0.078225131152929284 0.07332651712278497
leaf_weight=2030.9061546145822 420.4113799330371 392.63812084186065 476.9853492109105 287.40567443389955 521.80519838906184 47.849632213852601 313.64629950583912 424.77884550139424 1943.8571895133355 25.872606076285592 1088.2595110324983 1523.254585998744 1089.1179528319044 506.60634231840959 185.84506377950311 3040.9949496435438 374.72584538036608 83.484302717173705 210.66173932543461 645.07996008024202 109.6158721614047 2437.1183911394328 2544.5332024277523 47.710944768652553 28.497989814452012 83.507739452121314 1471.2527654469013 92.003169219213305
leaf_count=91797 36026 8003 2745 5225 7377 2079 6664 2390 59663 1168 23723 25577 5896 5632 2970 128907 15867 1603 5598 2391 4499 105669 53615 1006 866 3345 28375 1362
internal_value=-1.12577e-05 0.0276434 -0.00314213 -0.051982 -0.0314043 -0.0725159 0.0691989 0.0381705 -0.0600747 0.0523211 0.0228067 0.0243178 0.0678243 0.0643353 0.0474032 -0.0771182 -0.0643558 0.0200728 0.0115953 0.0756106 0.0471866 -0.0789637 0.082049 0.0522963 0.0653217 0.0383645 0.0794524 0.0818193
internal_weight=22448.4 14652 8416.85 7796.47 6019.82 6514.22 6235.11 1826.68 3974.76 1282.24 1401.91 2045.06 2397.03 933.726 662.83 6273.25 795.137 348.517 294.146 1734.2 240.973 5478.11 4408.42 554.317 54.3706 193.124 1863.89 379.409
internal_count=640038 321186 198416 318852 184414 296392 122770 32777 151460 22460 30387 32954 14002 13225 5715 286469 51893 9235 7201 8287 9923 234576 89993 6638 2034 7844 36378 6587
is_linear=0
shrinkage=0.05


Tree=4
num_leaves=31
num_cat=0
split_feature=2 3 0 3 1 7 5 3 2 2 2 0 5 0 2 1 7 8 1 2 2 8 0 0 0 8 7 2 2 0
split_gain=10476.6 5903.06 5123.01 5202.22 1259.33 1226.4 600.559 798.965 476.345 381.235 330.341 201.532 181.841 181.288 158.974 155.057 131.963 113.451 87.2942 67.0948 64.3819 50.4611 33.9902 29.3743 18.6921 15.2582 11.502 8.64977 5.19686 1.20959
threshold=7.5000000000000009 1.0000000180025095e-35 0.11834733933210374 1.0000000180025095e-35 0.41494706273078924 1.0000000180025095e-35 2.3560284376144414 1.0000000180025095e-35 2.5000000000000004 2.5000000000000004 2.5000000000000004 0.24662162363529208 5.197726011276246 0.17445652186870578 15.500000000000002 0.41494706273078924 1.0000000180025095e-35 1.0000000180025095e-35 0.41494706273078924 2.5000000000000004 15.500000000000002 1.0000000180025095e-35 0.16064515709877017 0.16172623634338382 0.10435571894049646 1.5000000000000002 1.0000000180025095e-35 15.500000000000002 15.500000000000002 0.028991596773266796
decision_type=2 2 2 2 2 2 2 2 2 2 2 2 2 2 2 2 2 2 2 2 2 2 2 2 2 2 2 2 2 2
left_child=2 4 3 5 11 9 8 10 15 -1 -8 23 24 21 -13 -4 19 -7 -10 -5 22 -6 -14 -2 27 -22 -9 -3 -26 -18
right_child=1 12 6 16 13 17 7 26 18 -11 -12 14 20 -15 -16 -17 29 -19 -20 -21 25 -23 -24 -25 28 -27 -28 -29 -30 -31
leaf_value=-0.078194205539438705 -0.076644800419610692 0.058368759466385034 0.0010671059225740886 0.035860293390200006 0.076634352551081072 0.024836460126643065 -0.032697353594906137 0.070427009636445104 0.059012746821924603 -0.041205578635798518 0.025666544601880642 0.0060041014697671249 0.03681672348750472 0.077660917298160964 -0.076178080017949235 0.045287598420769425 0.067209628780270758 -0.0093579358259854774 0.076819824809758505 0.059534885198278133 0.022036586642979968 -0.025316134476151622 0.066275516418473943 -0.067605549759351499 0.079371328985557932 -0.0030479656419463964 0.083104450050316747 0.018249763472103078 0.061676105400403608 0.081491652971886611
leaf_weight=1420.2904517801289 4489.0631070934396 65.660840025258949 236.86184227108606 472.00009762094123 13.711903024464844 331.07023942403612 276.8461474988726 431.4643454067409 953.78264988167211 1373.0106072888484 1925.8350588070753 141.80274277075659 420.01113764118054 147.80483353324234 99.884626984770875 1223.2947993665584 36.762419808655977 903.17619689329877 2608.2722960825777 840.30236688369769 207.5006563076895 82.415117915901646 129.891008267703 1191.7953511780433 341.04715597673203 84.934980333644489 378.28969015098119 18.091115653674933 62.691415882240108 498.90084955218481
leaf_count=72225 207553 1438 8956 5538 900 7110 11168 1762 21615 53436 35680 9378 5521 5633 5606 39975 163 24662 30724 4119 4352 3390 1117 63932 5149 2159 1849 625 2099 2204
internal_value=-1.44851e-05 -0.0476614 0.0256633 -0.00981923 -0.0682656 -0.0416878 0.0516103 0.0339469 0.0621997 -0.0600253 0.018323 -0.0728519 0.0478673 0.0429875 -0.0280267 0.0381205 0.0596265 -0.00017535 0.0720621 0.0510405 0.0337571 -0.0104005 0.0438381 -0.0747554 0.0721786 0.0147412 0.0764033 0.0499218 0.0767157 0.0805844
internal_weight=21406.5 7496.31 13910.2 5875.51 6166.48 4027.55 8034.65 3012.44 5022.21 2793.3 2202.68 5922.55 1329.83 243.932 241.687 1460.16 1847.97 1234.25 3562.05 1312.3 842.338 96.127 549.902 5680.86 487.491 292.436 809.754 83.752 403.739 535.663
internal_count=640038 318852 321186 169457 296392 157433 151729 50459 101270 125661 46848 286469 22460 9923 14984 48931 12024 31772 52339 9657 13149 4290 6638 271485 9311 6511 3611 2063 7248 2367
is_linear=0
shrinkage=0.05


Tree=5
num_leaves=30
num_cat=0
split_feature=2 6 3 3 2 1 6 0 3 6 0 6 5 5 0 0 2 2 1 3 8 0 0 0 2 0 1 2 2
split_gain=8565.08 5706.13 5463.63 5363.65 1957.43 1291.05 821.323 412.791 226.724 228.223 215.465 199.581 189.881 181.249 162.598 158.232 115.008 87.959 79.4554 76.4161 54.1363 46.5095 40.0066 19.107 16.2022 15.2009 10.7903 8.07262 5.35468
threshold=7.5000000000000009 16.500000000000004 1.0000000180025095e-35 1.0000000180025095e-35 2.5000000000000004 0.41494706273078924 9.5000000000000018 0.12060606107115747 1.0000000180025095e-35 30.500000000000004 0.17752101272344592 6.5000000000000009 2.806993961334229 4.8563570976257333 0.17445652186870578 0.24662162363529208 15.500000000000002 15.500000000000002 0.36073699593544012 1.0000000180025095e-35 1.0000000180025095e-35 0.063508063554763808 0.13714733719825747 0.079473681747913374 15.500000000000002 0.073622401803731932 0.41494706273078924 15.500000000000002 15.500000000000002
decision_type=2 2 2 2 2 2 2 2 2 2 2 2 2 2 2 2 2 2 2 2 2 2 2 2 2 2 2 2 2
left_child=1 3 5 4 10 15 -6 8 9 -3 -1 18 26 25 20 24 -17 22 -5 -14 -7 -13 -15 -19 -2 28 -9 -27 -4
right_child=2 7 13 11 6 14 -8 12 -10 -11 -12 21 19 17 -16 16 -18 23 -20 -21 -22 -23 -24 -25 -26 27 -28 -29 -30
leaf_value=-0.073379671209174893 -0.069471291451888462 -0.017702073514192691 0.047338397821111919 0.047578611333172205 -0.029765146065073456 0.073250972500957898 0.01575164408901655 0.067805759422320866 0.080007810896222178 0.080247676429089781 -0.026303962836009911 0.056121549331230952 0.026495931649224837 0.032665056919232924 0.074008215961636883 1.6240545313230232e-06 -0.072534632272599806 -0.010747563424437799 0.0097133708858370919 0.08001807245231278 -0.025848080869839869 0.073617560111760502 0.059544799779698579 0.017300973239956746 -0.075213599560909214 0.075074846060019962 0.076247336894633852 0.054725981470515994 0
leaf_weight=1744.4004352128813 2880.8768100841753 283.41011304461063 32.973353195295203 476.01276189088821 1931.7578576824744 16.22200245782733 2034.1396390177106 489.13727842350636 129.06750574523176 74.722703683524742 283.67223541406565 555.53718617837876 301.9613294180017 381.88181494502351 163.764025519602 135.01619026508706 91.144081523641944 85.10499045556935 196.26857481524348 85.698282420635223 77.705566009943141 1302.3993667154573 221.0341658621619 207.60220851405757 2466.8022008252156 384.6162748093484 3449.8432372887328 66.073335821551154 7.1433597751311018
leaf_count=87391 155820 19362 627 2749 56802 909 42944 19607 1894 5416 10895 2874 7796 5023 5569 9300 5600 2192 2987 602 3391 6440 1827 4520 115935 5661 53441 2247 253
internal_value=-0.000252055 0.0234901 -0.0441243 -0.00108626 -0.0268556 -0.0653348 -0.00641893 0.0670057 0.023328 0.00280412 -0.0668056 0.0599514 0.0719196 0.045078 0.0439996 -0.070394 -0.0293044 0.0316553 0.0365469 0.0384286 -0.00838273 0.0684053 0.0425689 0.00912435 -0.0721278 0.0695043 0.0752091 0.0721666 0.0389515
internal_weight=20556 13338 7217.96 8524.19 5993.97 5831.53 3965.9 4813.84 487.2 358.133 2028.07 2530.22 4326.64 1386.43 257.692 5573.84 226.16 895.623 672.281 387.66 93.9276 1857.94 602.916 292.707 5347.68 490.806 3938.98 450.69 40.1167
internal_count=640074 321200 318874 213082 198032 296524 99746 108118 26672 24778 98286 15050 81446 22350 9869 286655 14900 13562 5736 8398 4300 9314 6850 6712 271755 8788 73048 7908 880
is_linear=0
shrinkage=0.05


Tree=6
num_leaves=28
num_cat=0
split_feature=2 6 7 1 6 7 2 0 0 0 0 0 6 0 0 2 2 0 5 5 0 5 6 0 0 0 0
split_gain=7241.65 5124.86 1741.93 1260.72 838.887 432.249 416.228 323.375 263.279 144.855 144.642 109.261 178.852 94.5789 82.3629 56.7967 51.3941 29.7039 22.4899 20.3877 10.2089 9.67455 7.99868 3.48054 2.10128 0.141495 0.146314
threshold=7.5000000000000009 16.500000000000004 1.0000000180025095e-35 0.41494706273078924 4.5000000000000009 1.0000000180025095e-35 15.500000000000002 0.061553031206130988 0.15894736349582675 0.16472868621349337 0.17445652186870578 0.12158167362213136 30.500000000000004 0.24662162363529208 0.17192118614912036 2.5000000000000004 1.5000000000000002 0.11483516544103624 2.7752115726470952 3.1821258068084721 0.15268065780401233 3.1821258068084721 30.500000000000004 0.072299651801586165 0.28388279676437383 0.026671408675611023 0.048199767246842391
decision_type=2 2 2 2 2 2 2 2 2 2 2 2 2 2 2 2 2 2 2 2 2 2 2 2 2 2 2
left_child=1 2 4 6 16 11 8 -6 17 15 25 12 -3 -10 18 -4 -1 -2 -7 -11 23 -16 -13 -8 -22 -5 -27
right_child=3 5 9 10 7 14 20 -9 13 19 -12 22 -14 -15 21 -17 -18 -19 -20 -21 24 -23 -24 -25 -26 26 -28
leaf_value=-0.061604919209628184 -0.047082223262256064 -0.019906279097093166 -0.012949927860201141 -0.020346489286635475 -0.026280302556863967 0.033770008969570858 -0.065958695817979751 0.0019831890286356921 -0.021038306406918079 0.061258756711902555 0.07087924886786838 0.076056913304632864 0.073460152414285426 0.018300144875925302 0.063136291885070181 0.025626312103013124 -0.028954447398953725 -0.03577301182774472 0.013429171106344638 0.043473522427058459 -0.056289595695675744 0.044461658427597597 0.070844848298118768 -0.060990192849549874 -0.040926197756263674 0.013523334396686555 -0.0011292241201998011
leaf_weight=941.40449908003029 1883.3303619054204 84.029332360107219 99.878656862478238 0.46673870459198852 1584.0482072971645 224.78564321274462 697.08574354657321 2800.0269499514834 871.10133218092233 251.72727732044586 253.87408740073442 1992.995178946323 130.17744827674687 184.73018140520435 148.47491008930228 1941.9345845904172 140.45376333035529 861.58091120528297 348.85117978974085 490.05796641344205 756.09252254213425 150.71179999845481 1522.9499883561512 1329.0704160576279 32.022075805696659 1.1956459955981689 94.403726457683661
leaf_count=40787 80921 12861 4373 19 46049 5604 29851 71718 44680 5096 5988 40121 6296 10020 2645 33105 5249 41879 8029 6705 38750 2360 30202 59972 2174 64 4556
internal_value=-0.000233133 0.0220164 -0.00156795 -0.0412898 -0.0179643 0.0642814 -0.0461836 -0.00822963 -0.0353796 0.0306239 0.0511384 0.0716951 0.0368499 -0.0141454 0.032569 0.0237341 -0.057386 -0.0435414 0.0214311 0.0495529 -0.0607641 0.0538357 0.0738111 -0.0627179 -0.055698 -0.00107601 -0.00082453
internal_weight=19817.5 12852.5 8249.53 6964.95 5465.93 4602.98 6615.01 4384.08 3800.74 2783.6 349.94 3730.15 214.207 1055.83 872.824 2041.81 1081.86 2744.91 573.637 741.785 2814.27 299.187 3515.95 2026.16 788.115 96.0661 95.5994
internal_count=640074 321200 213082 318874 163803 108118 308247 117767 177500 49279 10627 89480 19157 54700 18638 37478 46036 122800 13633 11801 130747 5005 70323 89823 40924 4639 4620
is_linear=0
shrinkage=0.05


Tree=7
num_leaves=28
num_cat=0
split_feature=2 6 3 3 7 4 7 2 3 8 6 4 8 2 7 2 4 6 8 6 8 2 2 8 6 8 5
split_gain=6560.9 4741.05 4628.56 4557.76 2474.21 1013.22 403.026 337.511 201.226 174.934 163.439 122.484 93.8489 75.9353 67.4326 63.3119 57.1594 37.2639 24.0808 22.865 16.8356 16.1633 14.4898 6.72111 6.54135 3.44508 0.506754
threshold=7.5000000000000009 16.500000000000004 1.0000000180025095e-35 1.0000000180025095e-35 1.0000000180025095e-35 1.0000000180025095e-35 1.0000000180025095e-35 2.5000000000000004 1.0000000180025095e-35 1.0000000180025095e-35 6.5000000000000009 1.5000000000000002 1.0000000180025095e-35 15.500000000000002 1.0000000180025095e-35 15.500000000000002 1.0000000180025095e-35 9.5000000000000018 1.0000000180025095e-35 19.500000000000004 1.5000000000000002 15.500000000000002 2.5000000000000004 1.0000000180025095e-35 32.500000000000007 1.5000000000000002 3.920109868049622
decision_type=2 2 2 2 2 2 2 2 2 2 2 2 2 2 2 2 2 2 2 2 2 2 2 2 2 2 2
left_child=1 2 4 5 7 18 22 -1 12 -6 16 26 -8 19 15 -7 -4 -12 -2 -13 -15 -16 23 -3 -24 -20 -5
right_child=3 6 10 11 9 14 8 -9 -10 -11 17 13 -14 20 21 -17 -18 -19 25 -21 -22 -23 24 -25 -26 -27 -28
leaf_value=-0.066610943465582495 0.068154168083626121 0.071960911789081705 0.010379521719289339 0.071580975230025351 0.038848089332810372 -0.034408854572191408 0.050712426385043245 -0.036096921770129846 0.076773466813247634 0.0073099346230681142 0.058220827735564334 0.041887237546006595 0.0094015343233297861 0.022911631308540969 -0.064333387932403854 -0.067775422312918887 0.044416023214239791 0.07308827559047025 0.037054360277958075 0.070825484996202046 -0.0023303541482016773 -0.07051088832918305 0.07381440209151946 0.060868905753123759 0.068432773235240094 0.022350525306247451 0.062549993667343207
leaf_weight=1782.3992979914328 59.089367778040469 209.03568014519988 171.21129992976785 288.53803759771836 603.12818667611282 329.80743846114638 184.95037822438462 1850.516547722742 199.70589212886989 1622.2801912939904 955.80795590672642 508.24263324243657 534.52389860044059 225.70537396152213 2487.3321871879452 253.80771939085389 448.1247418615967 793.95324505564349 104.59152609344164 80.756768070103135 92.69605687969306 2088.6541628211271 1501.9929431883866 644.96816692095308 1232.7250427322579 73.715057897919905 66.063431445742026
leaf_count=92483 2066 7883 3014 6065 10249 36134 3720 59621 1354 35679 4423 5678 13564 5366 128986 15904 2722 4891 4457 1800 2654 105631 32395 27770 21432 3346 787
internal_value=-0.000243879 0.0207845 -0.00179738 -0.0404599 -0.0256467 -0.0604625 0.0619956 -0.0510763 0.0324191 0.0158664 0.0571682 0.0450681 0.0200558 0.0352852 -0.0651102 -0.0489738 0.0350309 0.0649887 0.0404551 0.0459201 0.0155551 -0.0671615 0.0695641 0.0636303 0.0714033 0.031083 0.070003
internal_weight=19394.3 12735.3 8227.42 6659 5858.32 5397 4507.9 3632.92 919.18 2225.41 2369.1 1262 719.474 907.401 5159.6 583.615 619.336 1749.76 237.396 588.999 318.401 4575.99 3588.72 854.004 2734.72 178.307 354.601
internal_count=640074 321200 213082 318874 198032 296524 108118 152104 18638 45928 15050 22350 17284 15498 286655 52038 5736 9314 9869 7478 8020 234617 89480 35653 53827 7803 6852
is_linear=0
shrinkage=0.05


Tree=8
num_leaves=30
num_cat=0
split_feature=3 2 0 2 1 1 2 2 2 0 2 0 0 2 2 8 0 0 0 2 0 2 4 0 8 5 5 0 0
split_gain=5762.23 6056.17 5096.8 819.686 754.045 749.895 376.15 316.386 208.041 190.254 187.244 148.099 119.357 91.0328 76.114 33.2738 32.1105 29.8975 28.6413 30.7123 17.9237 16.6311 11.2482 9.42917 9.39286 8.95647 8.87963 3.2626 1.68999
threshold=1.0000000180025095e-35 7.5000000000000009 0.12060606107115747 2.5000000000000004 0.41494706273078924 0.41494706273078924 1.5000000000000002 2.5000000000000004 5.5000000000000009 0.24662162363529208 15.500000000000002 0.072299651801586165 0.17445652186870578 15.500000000000002 1.5000000000000002 1.0000000180025095e-35 0.16064515709877017 0.16064515709877017 0.13714733719825747 7.5000000000000009 0.027402402833104137 7.5000000000000009 1.5000000000000002 0.091966174542903914 1.0000000180025095e-35 9.6501879692077654 4.5980229377746591 0.077935222536325469 0.17316342145204547
decision_type=2 2 2 2 2 2 2 2 2 2 2 2 2 2 2 2 2 2 2 2 2 2 2 2 2 2 2 2 2
left_child=1 2 3 23 7 9 -6 -4 -5 17 11 14 15 -11 20 -7 22 -3 19 -13 -2 -16 27 -1 -24 -20 -18 -12 -28
right_child=10 5 4 8 6 12 -8 -9 -10 13 16 18 -14 -15 21 -17 26 -19 25 -21 -22 -23 24 -25 -26 -27 28 -29 -30
leaf_value=-0.070915673754902694 -0.012078604938480248 -0.066706174954035344 -0.027355322299256715 -0.031802710377884534 0.021600969636243833 0.065120252595202821 0.06348558680488324 0.024949365448674796 -0.0026291123266794941 0.0073076821201090436 -0.0043022120158213491 0.060405940268264707 0.066539918480423968 -0.059467900251259545 0.048734625710342837 -0.021833903138559027 0.065311572224093561 -0.056793373871732479 0.068095469049026913 0.041787370041979688 0.021584566147294093 0.030948524037605493 0.022523043009253368 -0.05920129199070541 0.00029951910586501775 0.055448187742394905 0.011661485477026574 0.071148121895136293 0.03522106178604005
leaf_weight=1042.4453208923806 66.512168418616056 3714.4182870819131 332.3603070731042 1461.8589065855995 681.82009336020565 12.301752833649514 2525.1395555900235 2199.2066217915271 1050.630397193745 140.1472340483524 1.499115181795786 976.77725084206031 119.86625671200454 79.59546221884375 678.39084317430388 77.412374694860773 30.319374014128698 1000.3886938392388 1270.1832898806315 296.27909079100937 95.711103932189872 169.70561487862142 63.680350452952553 237.85310038647731 185.32700853382994 179.91451765160309 10.720941359959395 8.2985988371947297 45.476576698478311
leaf_count=59783 1325 205151 16351 57023 27732 909 40884 53287 27598 9300 67 6984 5569 5600 4284 3391 1127 66604 13405 4781 1387 2668 1405 15758 4863 1088 275 422 1053
internal_value=-0.000224917 -0.0148366 0.00876001 -0.0362107 0.0384841 -0.0585553 0.054587 0.0180765 -0.0196083 -0.0624902 0.052342 0.0556008 0.033995 -0.0169372 0.0392012 -0.00956034 0.0170656 -0.0646102 0.061675 0.0560949 0.0077571 0.0452018 0.00818958 -0.0687672 0.00603668 0.0665494 0.0433601 0.0594698 0.0309572
internal_weight=18754.2 14675.4 9531.31 3792.79 5738.53 5144.13 3206.96 2531.57 2512.49 4934.55 4078.8 3733.47 209.58 219.743 1010.32 89.7141 345.322 4714.81 2723.15 1273.06 162.223 848.096 258.805 1280.3 249.007 1450.1 86.5169 9.79771 56.1975
internal_count=640074 594940 298416 160162 138254 296524 68616 69638 84621 286655 45134 35922 9869 14900 9664 4300 9212 271755 26258 11765 2712 6952 6757 75541 6268 14493 2455 489 1328
is_linear=0
shrinkage=0.05


Tree=9
num_leaves=30
num_cat=0
split_feature=3 2 0 1 7 1 2 0 2 2 0 0 0 2 2 8 0 8 2 0 7 2 0 0 4 4 4 8 0
split_gain=5803.15 4959.31 4012.67 878.433 773.222 661.005 452.402 288.347 233.519 181.276 163.024 162.662 117.629 72.2032 71.7477 59.8428 36.3645 33.4248 29.4401 28.3395 25.3074 17.6052 14.0216 11.1553 9.50857 6.13744 4.90298 3.25045 2.0264
threshold=1.0000000180025095e-35 7.5000000000000009 0.11834733933210374 0.41494706273078924 1.0000000180025095e-35 0.41494706273078924 1.5000000000000002 0.17752101272344592 2.5000000000000004 15.500000000000002 0.24662162363529208 0.072299651801586165 0.17445652186870578 1.5000000000000002 15.500000000000002 1.0000000180025095e-35 0.13714733719825747 1.0000000180025095e-35 7.5000000000000009 0.15075758099555972 1.0000000180025095e-35 7.5000000000000009 0.027402402833104137 0.075961541384458556 1.5000000000000002 1.5000000000000002 1.5000000000000002 1.5000000000000002 0.028991596773266796
decision_type=2 2 2 2 2 2 2 2 2 2 2 2 2 2 2 2 2 2 2 2 2 2 2 2 2 2 2 2 2
left_child=1 2 4 10 8 7 -7 -4 -1 11 20 13 17 22 -12 -6 18 -5 -13 23 -3 -15 -2 28 -25 -21 -18 -27 -11
right_child=9 3 5 12 15 6 -8 -9 -10 19 14 16 -14 21 -16 -17 26 -19 -20 25 -22 -23 -24 24 -26 27 -28 -29 -30
leaf_value=-0.067172772101705289 -0.012958554734878773 -0.051787075570831134 0.00011265281781621312 0.063356418913122534 0.017696470726178751 0.012056010593703455 0.060041130596469532 0.034362765501449226 -0.03600740493390283 -0.027302159826717146 0.0034694744820167457 0.057683585111946802 0.065066679468208682 0.04589053254157098 -0.056926736974743965 -0.0081067176382860102 0.066090988876771867 -0.020809373438303629 0.039535568319576109 0.069369709488875081 -0.064335369298336734 0.02741437838820799 0.017411895998759076 0.068469041314654644 0.011784711082046873 0.038963972028015589 0.058259103900033353 0.017682384295563583 -0.0046191418006696211
leaf_weight=1160.0941446090219 63.283473605290055 466.8376857925432 1451.0716626391732 13.465267171151934 303.79180451734283 627.50341581457178 2270.1140704031568 1065.8005098005669 1254.2744401521559 11.182443064288234 136.87615372442087 946.58117607390159 147.4816601453349 657.94143744837493 76.076143471247633 858.29918549746799 1381.0790174430731 75.16761170187965 302.22888120435528 13.632613709662108 3997.2326839870511 165.80790020228596 93.280390012732823 7.3574821626825715 153.75301804128685 65.547233857781976 296.6081560694729 27.865073357243091 71.820811910496559
leaf_count=72147 1325 44488 41765 909 7068 28052 41233 30005 53490 329 9300 6984 5569 4284 5600 24656 12143 3391 4781 754 227267 2668 1387 371 3579 1452 2350 728 1999
internal_value=-0.000205932 -0.0158469 0.00622729 -0.0562397 -0.0348686 0.0333742 0.0496551 0.0146222 -0.0509951 0.0508631 -0.0609907 0.0539567 0.0377782 0.036283 -0.0181662 -0.00135228 0.0598681 -0.00768298 0.0533131 0.0164029 -0.0630302 0.0421965 0.00510208 0.00694076 0.0146081 0.0378019 0.0647271 0.0327968 -0.00788012
internal_weight=18162.1 13904.1 8990.95 4913.14 3576.46 5414.49 2897.62 2516.87 2414.37 4257.97 4677.02 3906.81 236.115 980.313 212.952 1162.09 2926.5 88.6329 1248.81 351.159 4464.07 823.749 156.564 244.114 161.111 107.045 1677.69 93.4123 83.0033
internal_count=640074 594940 298416 296524 157361 141055 69285 71770 125637 45134 286655 35922 9869 9664 14900 31724 26258 4300 11765 9212 271755 6952 2712 6278 3950 2934 14493 2180 2328
is_linear=0
shrinkage=0.05


Tree=10
num_leaves=30
num_cat=0
split_feature=3 2 0 1 2 1 2 2 7 2 0 0 0 2 2 0 7 8 2 0 2 1 8 4 0 0 4 4 8
split_gain=5297.22 4039.37 3328.2 1334.22 716.169 512.821 510.925 310.896 273.922 177.195 151.779 137.207 116.455 71.715 70.6836 34.1133 32.3679 30.2772 28.4793 26.1816 17.9752 15.6164 15.2462 10.4142 7.70736 7.04437 3.8087 3.74523 1.64523
threshold=1.0000000180025095e-35 7.5000000000000009 0.11834733933210374 0.41494706273078924 2.5000000000000004 0.41494706273078924 1.5000000000000002 2.5000000000000004 1.0000000180025095e-35 15.500000000000002 0.072299651801586165 0.24662162363529208 0.17445652186870578 1.5000000000000002 15.500000000000002 0.15894736349582675 1.0000000180025095e-35 1.0000000180025095e-35 7.5000000000000009 0.16172623634338382 7.5000000000000009 0.36073699593544012 1.0000000180025095e-35 1.5000000000000002 0.091966174542903914 0.084523811936378493 1.5000000000000002 1.5000000000000002 1.5000000000000002
decision_type=2 2 2 2 2 2 2 2 2 2 2 2 2 2 2 2 2 2 2 2 2 2 2 2 2 2 2 2 2
left_child=1 2 4 11 24 7 -7 -4 -6 10 13 16 17 21 -13 18 -3 -5 -12 22 -15 -2 25 -24 -1 -11 -17 -21 -29
right_child=9 3 5 12 8 6 -8 -9 -10 19 15 14 -14 20 -16 26 -18 -19 -20 27 -22 -23 23 -25 -26 -27 -28 28 -30
leaf_value=-0.06711553267003989 0.025571480874589159 -0.048610603721509146 -0.031211908364281421 0.061715644557600549 -0.033039646940196322 0.0045895566004375459 0.056985483461173062 0.020873421531062437 0.0012208597518206217 0.005774343751031666 0.056780603257496648 0.00084847972408426473 0.063405242679633517 0.0446399281818868 -0.060482172414724734 0.065478692775886013 -0.063040478303522898 -0.017202343391570143 0.041333011664584106 0.066446569738974781 0.026049468797458841 -0.0075928247642052336 0.054559842574880196 -0.0026380369057263531 -0.055632734027186964 0.039279428875391431 0.057095514667151043 0.039007008190630382 0.021109750411821261
leaf_weight=946.13480670827266 53.541996026062407 447.77120210123758 330.00898493110435 14.05733466055244 1238.789211354233 597.40355062956223 2107.880354897934 2150.2131706584114 1101.8039728045333 25.33931788476184 1241.1851861329633 138.45161453253968 238.0057599907741 644.68211045861244 70.474921484623337 1034.4369826298207 3772.1137923109491 72.909552982353489 406.39255029082415 11.056913899403296 168.01584378210828 102.69614641116641 7.8098751890356644 187.12507507259579 202.48432777159178 43.304195853095734 208.41485337668564 53.578863762781111 21.623944799415767
leaf_count=59963 532 44322 16691 903 53667 28104 41429 54841 29085 594 9192 9390 5617 4302 5611 9270 227040 3364 6101 651 2708 2166 405 4915 15063 882 1644 1147 548
internal_value=1.68409e-06 -0.0153394 0.00496088 -0.0523811 -0.0327911 0.030365 0.0454198 0.0139362 -0.016913 0.0489412 0.0520304 -0.0595573 0.0453436 0.0348595 -0.0199107 0.0577777 -0.0615165 -0.004109 0.052987 0.0148218 0.0408211 0.00378583 0.006942 -0.000187154 -0.0651207 0.0271147 0.0641005 0.0386631 0.0341003
internal_weight=17637.7 13428.5 8674.72 4753.78 3489.21 5185.51 2705.28 2480.22 2340.59 4209.2 3859.37 4428.81 324.973 968.936 208.927 2890.43 4219.88 86.9669 1647.58 349.838 812.698 156.238 263.578 194.935 1148.62 68.6435 1242.85 86.2597 75.2028
internal_count=640147 595090 298843 296247 157778 141065 69533 71532 82752 45057 35915 286363 9884 9708 15001 26207 271362 4267 15293 9142 7010 2698 6796 5320 75026 1476 10914 2346 1695
is_linear=0
shrinkage=0.05


Tree=11
num_leaves=31
num_cat=0
split_feature=3 2 0 4 2 2 1 0 2 0 0 0 1 2 2 0 8 2 0 0 0 0 2 0 8 5 5 5 5 8
split_gain=4857.76 3531.16 2730.98 1224.31 787.814 423.871 543.269 211.018 175.701 144.133 124.403 104.21 96.0005 69.6525 62.1713 36.4941 35.4107 29.1295 27.2756 26.356 25.6067 23.7053 21.4191 12.3175 11.8951 10.09 7.24495 1.35586 1.1536 0.414737
threshold=1.0000000180025095e-35 7.5000000000000009 0.12660256773233416 1.0000000180025095e-35 2.5000000000000004 1.5000000000000002 0.41494706273078924 0.067424245178699507 15.500000000000002 0.072299651801586165 0.24662162363529208 0.17445652186870578 0.48517705500125891 2.5000000000000004 15.500000000000002 0.15894736349582675 1.0000000180025095e-35 7.5000000000000009 0.096006143838167204 0.16172623634338382 0.026671408675611023 0.16064515709877017 7.5000000000000009 0.063508063554763808 1.5000000000000002 9.6501879692077654 5.8437838554382333 20.771975517272953 18.615054130554203 1.0000000180025095e-35
decision_type=2 2 2 2 2 2 2 2 2 2 2 2 2 2 2 2 2 2 2 2 2 2 2 2 2 2 2 2 2 2
left_child=1 2 4 11 18 12 -7 -6 9 13 21 16 -4 20 -12 17 -3 -11 -1 23 -2 -5 -15 27 -25 -17 29 -10 -28 -21
right_child=8 3 5 10 7 6 -8 -9 19 15 14 -13 -14 22 -16 25 -18 -19 -20 26 -22 -23 -24 24 -26 -27 28 -29 -30 -31
leaf_value=-0.065194060946589791 -0.011694066092895448 0.060998506601508497 -0.035501884240736963 -0.06196918248760519 -0.027158908081820945 0.018212056660372979 0.055243347707894047 0.0014268985758602761 -0.0092737185623179997 0.054801549573262692 -0.00046540478980725746 0.062071863004530749 0.0054807772347165822 0.046120585786582055 -0.059311921230245618 0.06389875099160669 -0.017554452113198275 0.039175312282105024 -0.0467862455223736 0.069223399703201863 0.022257976014454041 -0.052341887688395497 0.025717706617134448 0.017911305801341957 -0.0089776955238760597 0.047976698217210519 0.029381144109204994 -0.025982655142549518 0.012087427145849821 0.048110534812190159
leaf_weight=927.24621167019359 86.665187364211306 17.431622112169862 204.04900275077671 3140.4657991733475 1218.4128389614561 2074.3185980624912 1897.1691256753402 1371.8035659493253 32.403065987367881 1193.8125690935412 137.21413932100404 226.60399326868355 473.27197617597994 538.51124365720898 66.334435944299912 1120.1975875170901 71.192855771536415 410.19805772085965 268.51356459329691 8.4917805173899961 152.20812970290717 843.51299107200248 173.70968729341985 149.11540727728425 56.09237173825386 121.01770056365058 35.257379530521575 21.489530647173524 16.2600387185812 26.95822267101903
leaf_count=62326 1596 903 10236 204870 41905 56931 38947 47745 1001 9192 9390 5617 23131 3406 5611 10181 3364 6101 17622 298 1998 66492 2708 3477 1709 733 757 609 285 1006
internal_value=2.03143e-06 -0.0150863 0.00399918 -0.0508358 -0.0275245 0.0296732 0.0359078 -0.0120203 0.0471234 0.0502328 -0.0579899 0.0441267 -0.00687532 0.0333382 -0.0197657 0.0558717 -0.00179217 0.050822 -0.061086 0.0129756 0.00992031 -0.0599389 0.0411729 0.00493165 0.0105331 0.0623703 0.0367182 -0.0162059 0.0241876 0.0541995
internal_weight=17079.9 12937.5 8434.78 4502.76 3785.98 4648.81 3971.49 2590.22 4142.39 3796.32 4187.53 315.228 677.321 951.094 203.549 2845.23 88.6245 1604.01 1195.76 346.068 238.873 3983.98 712.221 259.1 205.208 1241.22 86.9674 53.8926 51.5174 35.45
internal_count=640147 595090 298843 296247 169598 129245 95878 89650 45057 35915 286363 9884 33367 9708 15001 26207 4267 15293 79948 9142 3594 271362 6114 6796 5186 10914 2346 1610 1042 1304
is_linear=0
shrinkage=0.05


Tree=12
num_leaves=28
num_cat=0
split_feature=2 6 7 4 6 6 2 0 0 0 0 7 2 6 0 2 0 8 8 8 0 5 0 0 0 8 8
split_gain=3029.78 3326.33 944.091 926.653 543.524 466.204 335.103 210.712 166.835 136.376 102.041 86.207 54.4956 49.0515 38.818 37.5314 36.5042 34.7179 33.2668 27.0516 20.4046 15.9583 15.4669 15.3785 5.13515 2.5779 2.2001
threshold=7.5000000000000009 12.500000000000002 1.0000000180025095e-35 1.0000000180025095e-35 4.5000000000000009 19.500000000000004 15.500000000000002 0.15894736349582675 0.16064515709877017 0.054804805666208274 0.17445652186870578 1.0000000180025095e-35 1.5000000000000002 34.500000000000007 0.15894736349582675 2.5000000000000004 0.12158167362213136 1.0000000180025095e-35 1.0000000180025095e-35 1.5000000000000002 0.073622401803731932 3.8667021989822392 0.17192118614912036 0.15268065780401233 0.072299651801586165 1.5000000000000002 1.5000000000000002
decision_type=2 2 2 2 2 2 2 2 2 2 2 2 2 2 2 2 2 2 2 2 2 2 2 2 2 2 2
left_child=1 2 4 10 12 8 7 20 15 -6 18 16 -1 -9 19 -3 -7 -10 -2 -4 -5 -16 -13 24 -8 -25 -20
right_child=3 5 14 6 9 11 23 13 17 -11 -12 22 -14 -15 21 -17 -18 -19 26 -21 -22 -23 -24 25 -26 -27 -28
leaf_value=-0.056287904055585897 0.059771693216419411 -0.0047097541045986614 0.027406349680564879 -0.040103060848660506 -0.025766556593989576 0.038795632252640849 -0.057317854206472091 -0.009040237551456708 0.065254349869996994 -0.0046377775303022726 0.060930965148429606 0.013614453892611469 -0.021182675772191475 0.024870912586972795 0.060341983909412748 0.02008741611331372 0.064578244655344744 0.040245166167825391 -0.0074057512808751187 0.010716822861764338 -0.029696530479766288 0.035089312688384493 0.045837048368073646 -0.040937273489779442 -0.050858360811249698 -0.048527148858164414 -0.025318536365520724
leaf_weight=864.74202446453273 17.928033212199807 182.17347226124548 803.45225335695432 727.76218788753613 1044.7411922116298 149.48160600153642 540.04842829750851 774.59680417577329 187.75453921840381 2839.7625968874199 282.08914480544627 103.87600864711567 128.22790731862187 123.10838301839249 86.826045572321163 924.20474211026885 2419.4906065497344 565.09181872187037 40.390225539522362 350.84657913449337 1400.8407529324249 247.43242011402617 58.747465222564642 404.3612189765845 1026.8153496013038 203.96947413086309 31.620048076321837
leaf_count=41038 990 10564 12601 38412 37115 17851 29881 43363 3665 75132 6034 2934 5245 11346 1333 24748 66195 12929 2046 6240 84006 2925 1100 27235 60055 13592 1572
internal_value=-2.5518e-06 0.0152641 -0.00813022 -0.0300144 -0.0187679 0.0477032 -0.0354681 -0.0246987 0.0283732 -0.0103243 0.046168 0.0608504 -0.0517725 -0.00437295 0.0267169 0.0159996 0.0630878 0.0465281 -0.000161223 0.0223448 -0.0332654 0.0417441 0.0253903 -0.0504399 -0.0531055 -0.0435281 -0.0154606
internal_weight=16530.4 10956.9 6366.03 5573.53 4877.47 4590.82 5201.5 3026.31 1859.22 3884.5 372.027 2731.6 992.97 897.705 1488.56 1106.38 2568.97 752.846 89.9383 1154.3 2128.6 334.258 162.623 2175.19 1566.86 608.331 72.0103
internal_count=640147 321615 181629 318532 158530 139986 307890 177127 51906 112247 10642 88080 46283 54709 23099 35312 84046 16594 4608 18841 122418 4258 4034 130763 89936 40827 3618
is_linear=0
shrinkage=0.05


Tree=13
num_leaves=31
num_cat=0
split_feature=3 0 2 6 4 2 6 6 2 6 2 6 2 0 0 4 0 5 2 5 0 0 0 0 0 2 6 5 5 0
split_gain=4504.35 2955.18 1833.13 1681.67 784.757 747.702 877.006 346.695 271.868 271.613 155.777 146.44 167.607 85.9341 85.739 49.2023 48.6572 31.5877 29.6722 24.4037 23.4021 11.5236 9.89866 5.74214 4.96726 3.66488 0.903913 0.636971 0.41928 0.318791
threshold=1.0000000180025095e-35 0.13714733719825747 7.5000000000000009 11.500000000000002 1.0000000180025095e-35 7.5000000000000009 8.5000000000000018 20.500000000000004 4.5000000000000009 19.500000000000004 2.5000000000000004 4.5000000000000009 15.500000000000002 0.24662162363529208 0.063508063554763808 1.0000000180025095e-35 0.17445652186870578 5.197726011276246 1.5000000000000002 4.9216275215148935 0.15268065780401233 0.025320513173937801 0.16472868621349337 0.12660256773233416 0.051956815645098693 15.500000000000002 44.500000000000007 3.2189975976943974 3.1437423229217534 0.04446640424430371
decision_type=2 2 2 2 2 2 2 2 2 2 2 2 2 2 2 2 2 2 2 2 2 2 2 2 2 2 2 2 2 2
left_child=1 5 3 8 16 6 10 -8 -3 -5 -1 18 14 -6 21 26 -4 -16 20 23 24 -13 -21 -14 -2 -17 -7 -20 -22 -29
right_child=11 2 4 9 13 15 7 -9 -10 -11 -12 12 19 -15 17 25 -18 -19 27 22 28 -23 -24 -25 -26 -27 -28 29 -30 -31
leaf_value=-0.064648257094682096 -0.027932833954465476 -0.037991790021006555 0.0010668135628858889 0.029573517616580343 -0.052793472873980146 -0.01286198156708903 -0.011328744083115388 0.045921925444815492 0.0105900580093312 0.062150208230191489 -0.035518891582165792 0.026226647081242373 0.01992002530143494 -0.0170274810131847 0.059909059787490608 -0.058276882485312334 0.059839585072822568 0.048210788665680168 0.028474719421828273 0.0025364710802502819 0.032013853048028847 0.040560077053271165 0.026217135054678251 0.052419589254036447 -0.0066989844139383513 -0.062629790889939752 0.0020429587823993138 0.022728885985280469 0.010318918692434986 0.04703050978580614
leaf_weight=920.59791175369173 39.71851391158998 756.48117068910506 42.937470059463521 987.53959659468819 1194.5669508815845 16.930156456888653 1902.1396801335286 306.61439539991261 464.28145954322827 1828.8223457295244 922.54265121743083 203.33103685174137 21.883447487445665 196.61797508052405 1815.4919442213723 1316.6577300524514 200.31715811416507 879.25833815173246 14.112470045685766 206.20969327655621 36.149974104017019 504.71488998283166 55.911835014238022 43.226305123738712 91.959725968539715 1140.3498724352103 23.075401591588161 3.7879388220608226 3.7648608535528174 31.717724356800318
leaf_count=58918 1105 24727 2092 25904 100389 979 68604 22587 7697 57066 33340 1924 850 15001 19194 97034 5617 6717 132 5391 323 4800 1222 1679 1442 73939 1196 48 36 194
internal_value=-8.68436e-06 -0.015014 0.011406 0.0294927 -0.0332612 -0.0378944 -0.0246247 -0.00337047 -0.0195142 0.0507364 -0.0500845 0.0463948 0.0487389 -0.0477501 0.0520262 -0.0594159 0.0495094 0.0561036 0.00682543 0.0145127 -0.00302445 0.0364724 0.00764701 0.0418077 -0.0132231 -0.0603115 -0.00422221 0.0406791 0.0302442 0.0449284
internal_weight=16171.7 12220.5 5671.56 4037.12 1634.44 6548.91 4051.89 2208.75 1220.76 2816.36 1843.14 3951.24 3730.03 1391.18 3402.8 2497.01 243.255 2694.75 221.211 327.231 171.593 708.046 262.122 65.1098 131.678 2457.01 40.0056 49.6181 39.9148 35.5057
internal_count=640147 595090 238493 115394 123099 356597 183449 91191 32424 82970 92258 45057 41777 115390 32635 173148 7709 25911 3280 9142 2906 6724 6613 2529 2547 170973 2175 374 359 242
is_linear=0
shrinkage=0.05


Tree=14
num_leaves=31
num_cat=0
split_feature=3 0 2 6 4 2 6 2 5 6 2 0 6 2 0 0 2 4 6 6 2 5 5 8 8 2 2 8 0 4
split_gain=4107.1 2842.11 1653.23 1549.87 697.565 653.347 762.509 274.818 240.477 236.917 151.41 134.932 98.2494 102.263 96.6721 47.0257 46.0505 45.8651 36.8724 26.3743 25.5853 23.561 12.3602 10.5128 9.50612 5.83602 4.3927 3.79078 3.57784 1.08886
threshold=1.0000000180025095e-35 0.13714733719825747 7.5000000000000009 12.500000000000002 1.0000000180025095e-35 7.5000000000000009 8.5000000000000018 2.5000000000000004 2.806993961334229 21.500000000000004 2.5000000000000004 0.12660256773233416 4.5000000000000009 15.500000000000002 0.24662162363529208 0.17445652186870578 15.500000000000002 1.0000000180025095e-35 8.5000000000000018 6.5000000000000009 1.5000000000000002 8.9681973457336444 4.5980229377746591 1.0000000180025095e-35 1.0000000180025095e-35 1.5000000000000002 15.500000000000002 1.5000000000000002 0.065591398626565947 1.5000000000000002
decision_type=2 2 2 2 2 2 2 2 2 2 2 2 2 2 2 2 2 2 2 2 2 2 2 2 2 2 2 2 2 2
left_child=1 5 3 7 15 6 10 -3 -5 -8 -1 12 20 18 -6 -4 19 23 -14 25 28 -21 29 -7 -15 -13 -19 -24 -2 -18
right_child=11 2 4 8 14 17 9 -9 -10 -11 -12 16 13 24 -16 -17 22 26 -20 21 -22 -23 27 -25 -26 -27 -28 -29 -30 -31
leaf_value=-0.063651942320862673 -0.02351600160425334 -0.047662617334763291 0.00025539774247385825 0.058470078479395615 -0.051391903694727736 0.053728404650601282 -0.01031029170940544 0.00080122086319217686 0.019983805265770045 0.045484898136942439 -0.034581374512268941 0.028345800073301342 0.032923942647054949 0.022023928409341736 -0.013359457472352457 0.059001630415984621 0.064896394642141489 -0.057060287786336386 0.048294608830483955 0.061875403078744479 0.034306166949379172 0.043798847573277622 0.024737544123486721 -0.015770675714221197 -0.0035114725279727721 0.047452593076848043 -0.06185556702775033 0.0037818610425229826 -0.0057384699269210117 0.042821021560069006
leaf_weight=893.07365592056885 54.958360569551587 441.67434054595651 41.773638095910428 2115.4532789602745 1135.9505956116936 5.9861071929335585 1898.4599078946849 863.63065270018706 503.59862270043232 210.92814654919493 905.6481989803724 84.18278718739748 617.58723784610629 49.499329563695937 196.81413739975687 188.41805568430573 14.511992179788647 1244.4198222972991 1100.4773529236991 1270.6614601452602 34.791064897552133 219.35947010910604 78.198420122032985 33.002954215189675 133.37089161619951 86.85550644621253 1084.8376938283909 30.838875426707091 60.612193424254656 24.398579487577081
leaf_count=58918 1430 18021 2092 66418 100389 423 70865 17554 13401 20326 33340 713 4164 1098 15001 5617 903 97034 12784 13622 307 1538 1689 1752 3951 397 73939 844 960 657
internal_value=-2.01355e-05 -0.0147059 0.0115771 0.0288968 -0.0319025 -0.0376845 -0.0251191 -0.0156056 0.051077 -0.00471923 -0.0490315 0.0447271 0.0359237 0.0390007 -0.0457864 0.0483861 0.0546942 -0.0584083 0.0427835 0.0570812 -0.00294408 0.0592331 0.0277588 -0.00442847 0.00341439 0.0381877 -0.0593086 0.0189006 -0.0143003 0.0519
internal_weight=15624 11763.7 5487.31 3924.36 1562.96 6276.36 3908.11 1305.3 2619.05 2109.39 1798.72 3860.3 2051.3 1900.93 1332.76 230.192 1809.01 2368.25 1718.06 1661.06 150.362 1490.02 147.948 38.9891 182.87 171.038 2329.26 109.037 115.571 38.9106
internal_count=640147 595090 238493 115394 123099 356597 183449 35575 79819 91191 92258 45057 24694 21997 115390 7709 20363 173148 16948 16270 2697 15160 4093 2175 5049 1110 170973 2533 2390 1560
is_linear=0
shrinkage=0.05


Tree=15
num_leaves=31
num_cat=0
split_feature=3 0 2 6 2 6 1 7 7 6 2 0 0 6 2 4 6 6 0 1 2 2 1 0 6 2 0 6 6 0
split_gain=3755.96 2555.51 1471.85 1442.01 622.478 703.338 601.485 568.762 250.946 203.127 152.737 136.322 98.3467 86.6465 77.1269 66.5118 64.5648 58.0336 53.3755 38.6688 31.9385 24.6734 17.2052 17.1121 14.084 5.24141 2.71761 2.14746 0.763855 0.729501
threshold=1.0000000180025095e-35 0.13714733719825747 7.5000000000000009 14.500000000000002 7.5000000000000009 8.5000000000000018 0.41494706273078924 1.0000000180025095e-35 1.0000000180025095e-35 21.500000000000004 2.5000000000000004 0.10620300844311716 0.24662162363529208 4.5000000000000009 8.5000000000000018 1.5000000000000002 8.5000000000000018 8.5000000000000018 0.17445652186870578 0.41494706273078924 7.5000000000000009 15.500000000000002 0.36073699593544012 0.16064515709877017 4.5000000000000009 15.500000000000002 0.065591398626565947 9.5000000000000018 44.500000000000007 0.10435571894049646
decision_type=2 2 2 2 2 2 2 2 2 2 2 2 2 2 2 2 2 2 2 2 2 2 2 2 2 2 2 2 2 2
left_child=1 4 3 7 5 10 12 -3 -5 -7 -1 13 -4 22 16 17 -15 24 -8 25 -17 -16 29 -22 -13 -6 -24 -19 -21 -2
right_child=11 2 6 8 19 9 18 -9 -10 -11 -12 15 -14 14 21 20 -18 27 -20 28 23 -23 26 -25 -26 -27 -28 -29 -30 -31
leaf_value=-0.062600984059403175 0.030772653634956123 -0.033627426469751434 -0.049891361524143731 0.062596950665495296 -0.055846217105534127 -0.0095929986819114146 -0.0054344355413850527 0.029218067496330949 0.023889433950374558 0.043539531475800787 -0.033009244169336566 0.022145007655145321 -0.011452334771396681 0.029455260102124889 0.026118566555300732 0.064465500468539411 0.054561640290755081 0.053833176477114844 0.058303280722777566 -0.014990166930755795 0.022744767964675654 0.00068942374693408304 -0.024138533668611878 0.041656738992150742 0.04549565438404294 -0.061149212527707053 -0.0074920759865324191 0.063420676191836112 -0.00032410017823360573 0
leaf_weight=859.5246776395943 24.269941296428446 950.21467951883096 1080.9174455709344 1699.7823963139963 1170.5773416130614 1866.3801376537886 40.157419629191281 578.90510745863139 557.3143437902836 198.54645749959309 891.62996376957744 81.269358158111572 197.49155009733659 479.20165828429163 294.75479223526781 88.44169142190367 558.78522142312431 93.816892102360725 174.62099725427106 15.435098249930887 258.75840433738631 141.56380389093101 54.701331153512001 229.57094712919206 367.23651104792953 1026.6357674484607 47.24944207072258 1053.5785914040753 21.736480776380631 2.1506289578974238
leaf_count=58717 237 31499 100730 58838 96872 70834 2109 10943 13915 20192 33259 785 15096 3570 4464 391 5263 479 5597 987 4511 3953 1474 3186 1826 73840 806 14293 1218 19
internal_value=4.81572e-05 -0.0143441 0.0110761 0.0276552 -0.0365246 -0.0242454 -0.0309547 -0.00982989 0.053049 -0.00447248 -0.0475504 0.0432369 -0.0439639 0.0321473 0.0355775 0.0514057 0.0429955 0.05668 0.046378 -0.0574839 0.0367669 0.0178897 -0.007194 0.0316793 0.041305 -0.0583396 -0.0165467 0.0626649 -0.00666488 0.0283471
internal_weight=15105.2 11329.9 5279.4 3786.22 6050.47 3816.08 1493.19 1529.12 2257.1 2064.93 1751.15 3775.35 1278.41 1602.68 1474.31 2172.67 1037.99 1595.9 214.778 2234.38 576.771 436.319 128.371 488.329 448.506 2197.21 101.951 1147.4 37.1716 26.4206
internal_count=639903 594646 238727 115195 355919 183002 123532 42442 72753 91026 91976 45257 115826 19786 17250 25471 8833 17383 7706 172917 8088 8417 2536 7697 2611 170712 2280 14772 2205 256
is_linear=0
shrinkage=0.05


Tree=16
num_leaves=31
num_cat=0
split_feature=3 0 2 6 2 6 1 6 2 6 0 6 7 6 2 2 6 1 6 2 0 2 2 8 2 2 0 8 0 6
split_gain=3397.21 2361.91 961.332 1090.15 951.976 861.863 475.319 432.411 260.856 154.121 132.778 126.321 84.8231 76.8714 73.962 67.007 61.2445 60.7834 40.6227 24.4411 24.3221 19.5641 14.8766 13.3872 9.54039 8.17413 7.52812 6.91125 2.95162 2.05443
threshold=1.0000000180025095e-35 0.16064515709877017 7.5000000000000009 9.5000000000000018 7.5000000000000009 11.500000000000002 0.41494706273078924 20.500000000000004 2.5000000000000004 4.5000000000000009 0.10620300844311716 19.500000000000004 1.0000000180025095e-35 4.5000000000000009 8.5000000000000018 15.500000000000002 8.5000000000000018 0.41494706273078924 6.5000000000000009 7.5000000000000009 0.17445652186870578 15.500000000000002 1.5000000000000002 1.0000000180025095e-35 2.5000000000000004 15.500000000000002 0.17316342145204547 1.5000000000000002 0.065591398626565947 32.500000000000007
decision_type=2 2 2 2 2 2 2 2 2 2 2 2 2 2 2 2 2 2 2 2 2 2 2 2 2 2 2 2 2 2
left_child=1 2 3 8 5 9 12 -5 -1 -3 13 -7 -6 22 16 18 -15 25 24 -20 -8 -16 28 -19 -12 -4 27 -17 -2 -28
right_child=10 4 17 7 6 11 20 -9 -10 -11 15 -13 -14 14 21 26 -18 23 19 -21 -22 -23 -24 -25 -26 -27 29 -29 -30 -31
leaf_value=-0.060971548476646813 -0.023233859930459486 -0.068412070479132239 -0.054200338569931776 -0.004073637436101194 -0.011923519216441331 0.033290153781401773 -0.0065289473771162274 0.048759244845580911 -0.027354205291592049 -0.0027162346396921704 0.02622405956308925 0.060199314866897148 -0.047214225711779079 0.028005317540835042 0.024114979874796993 0.021786041124136884 0.052927955167914188 0.053877951017948192 0.05969099959561696 0.046436726275577933 0.057660518712923874 0.0013915683759746157 0.026814022460600828 -0.015075052867184153 0.049932904761896088 -0.060319127369702977 0.028937161017183334 -0.004295643924704406 -0.0057908475006509304 0.049284062319913759
leaf_weight=965.74073359894101 54.544171195477247 103.09667380945757 1279.8790439430959 1781.8078756739706 234.16049075448973 659.83348682964424 15.971774168734553 494.27175007938058 1438.9489679269609 647.50881205752376 163.42702695727348 1306.0749600783165 631.74029894371051 460.42911577038467 286.03401968260005 89.346540107791952 538.94205945805879 7.6226900266483417 1155.0534071039874 521.91775171362679 162.2120781717822 142.31267676442076 25.791311850771308 51.790325682792172 59.56609208136797 1145.0511546703056 51.587636558339 34.795204554568045 45.783369574695826 20.006079886108637
leaf_count=65910 1474 4328 116126 65130 30387 17427 845 32416 50046 16793 1330 46147 51308 3570 4464 2185 5263 722 10671 7904 5597 3953 256 2747 253 88717 1114 1114 806 900
internal_value=5.07404e-05 -0.0139005 -0.030742 -0.0173946 0.0181864 0.0337816 -0.0223813 0.0074055 -0.0408671 -0.0117858 0.0418143 0.0511809 -0.0376889 0.0307119 0.0340169 0.0500345 0.0414704 -0.0558793 0.0529074 0.055584 0.0518766 0.0165875 -0.00664935 -0.00576912 0.0326771 -0.0571035 0.0220586 0.0144477 -0.0153917 0.0349946
internal_weight=14575.2 10925.7 7165.11 4680.77 3760.6 2716.51 1044.08 2276.08 2404.69 750.605 3649.54 1965.91 865.901 1553.84 1427.72 2095.7 999.371 2484.34 1899.96 1676.97 178.184 428.347 126.119 59.413 222.993 2424.93 195.735 124.142 100.328 71.5937
internal_count=639903 594646 421814 213502 172832 84695 88137 97546 115956 21121 45257 63574 81695 19786 17250 25471 8833 208312 20158 18575 6442 8417 2536 3469 1583 204843 5313 3299 2280 2014
is_linear=0
shrinkage=0.05


Tree=17
num_leaves=29
num_cat=0
split_feature=3 2 6 7 1 7 2 6 2 7 5 6 2 5 5 1 2 2 1 2 2 6 4 5 6 2 5 6
split_gain=3099.6 1938.32 2923.68 1212.75 636.908 496.994 227.396 124.226 168.319 103.767 97.2295 71.6362 57.9572 40.8694 39.8266 38.0498 27.7367 22.8955 15.9421 13.9313 12.3281 11.2126 7.64243 5.72444 3.29953 1.14082 0.923666 0.0397053
threshold=1.0000000180025095e-35 7.5000000000000009 14.500000000000002 1.0000000180025095e-35 0.41494706273078924 1.0000000180025095e-35 2.5000000000000004 6.5000000000000009 7.5000000000000009 1.0000000180025095e-35 4.8563570976257333 9.5000000000000018 15.500000000000002 3.2189975976943974 3.2189975976943974 0.36073699593544012 15.500000000000002 15.500000000000002 0.24505520612001422 2.5000000000000004 2.5000000000000004 5.5000000000000009 1.5000000000000002 2.3829971551895146 4.5000000000000009 2.5000000000000004 1.3614053726196291 40.500000000000007
decision_type=2 2 2 2 2 2 2 2 2 2 2 2 2 2 2 2 2 2 2 2 2 2 2 2 2 2 2 2
left_child=1 2 3 6 9 19 -1 15 11 12 22 18 -3 -5 -7 20 -12 -11 -9 -4 24 26 -10 -22 -2 -13 -17 -6
right_child=7 4 5 13 27 14 -8 8 10 17 16 25 -14 -15 -16 21 -18 -19 -20 -21 23 -23 -24 -25 -26 -27 -28 -29
leaf_value=-0.055562828454261928 0.032365259716886197 -0.0096738278345139418 0.050838581000790667 0.031799916922675461 0.030022209079170449 0.023324152821259565 -0.028416973790776148 0.037285389713730875 0.058022254853048995 -0.049879429809829602 0.026888401063946878 0.057177169511268902 -0.050427600493007319 0.010740597894176635 0.002649064486866198 0.00030912004587467176 0.0075359276836221879 -0.059185075030313075 0.057067493913303097 0.061243980008389445 0.013798850070630886 0.05889110426129484 0.040575498111736323 0.043566933179027614 0.016818506866038387 0.062519674728420724 -0.0074334428400347693 0.037203879578294713
leaf_weight=1422.7777447038388 43.987056521698833 221.55146768966915 470.15058678606147 290.76715991972014 24.08728081388108 473.60079410876642 1692.0889632337494 563.10057709366083 225.87174073890492 1466.8774429995392 569.48048365357681 235.11814499083266 144.15933144047449 1115.4477690137282 459.36034534141072 60.857721878215671 276.17892291242606 1281.5440567886108 128.59982417710125 1261.898565270094 20.086285132914782 6.79825735092163 98.901538966121734 114.27839869819582 182.0603491216898 919.84244633838534 98.914470950141549 198.80220852107595
leaf_count=91873 368 36067 33660 9144 1126 16503 59745 3359 6455 128980 6835 4299 15768 23661 13818 1111 6756 105723 1051 49793 166 78 2340 626 1580 8391 1842 8785
internal_value=5.49433e-05 -0.0135655 0.00105771 -0.0234268 -0.0450528 0.0425932 -0.0408249 0.0404946 0.0444085 -0.0508977 0.0295438 0.0538166 -0.0257991 0.0151084 0.0131566 0.0180567 0.0205823 -0.0542303 0.041009 0.0584379 0.0271807 -0.00167727 0.0527952 0.0392216 0.0199306 0.0614616 -0.00446132 0.0365191
internal_weight=14067.2 10523.1 7186.09 4521.08 3337.02 2665.01 3114.87 3544.08 3017.09 3114.13 1170.43 1846.66 365.711 1406.21 932.961 526.983 845.659 2748.42 691.7 1732.05 360.412 166.57 324.773 134.365 226.047 1154.96 159.772 222.889
internal_count=639903 594646 298197 184423 296449 113774 151618 45257 39486 286538 22386 17100 51835 32805 30321 5771 13591 234703 4410 83453 2740 3031 8795 792 1948 12690 2953 9911
is_linear=0
shrinkage=0.05


Tree=18
num_leaves=31
num_cat=0
split_feature=3 2 6 7 7 6 2 6 2 2 5 8 6 8 2 6 2 2 8 2 4 4 6 4 5 5 8 2 5 4
split_gain=2815.29 1901.71 2734.58 1091.34 481.709 394.404 223.564 122.005 166.631 95.435 89.8042 73.9163 71.2715 56.8528 41.4532 49.18 32.1429 25.5681 24.8022 16.1606 13.7532 12.8822 18.728 8.42783 5.11591 5.00729 2.45118 1.45452 0.332398 0.26525
threshold=1.0000000180025095e-35 7.5000000000000009 14.500000000000002 1.0000000180025095e-35 1.0000000180025095e-35 38.500000000000007 2.5000000000000004 6.5000000000000009 7.5000000000000009 15.500000000000002 4.8563570976257333 1.0000000180025095e-35 9.5000000000000018 1.0000000180025095e-35 15.500000000000002 34.500000000000007 2.5000000000000004 15.500000000000002 1.0000000180025095e-35 2.5000000000000004 1.0000000180025095e-35 1.0000000180025095e-35 5.5000000000000009 1.5000000000000002 2.156444907188416 2.3560284376144414 1.0000000180025095e-35 2.5000000000000004 1.6950944662094118 1.5000000000000002
decision_type=2 2 2 2 2 2 2 2 2 2 2 2 2 2 2 2 2 2 2 2 2 2 2 2 2 2 2 2 2 2
left_child=1 2 3 6 19 14 -1 16 12 18 23 -6 20 -5 15 -3 21 -12 -7 -4 -9 22 -2 -10 28 -23 -26 -14 -18 -16
right_child=7 5 4 13 11 9 -8 8 10 -11 17 -13 27 -15 29 -17 24 -19 -20 -21 -22 25 -24 -25 26 -27 -28 -29 -30 -31
leaf_value=-0.054393479467537226 -0.0056586259881522272 -0.047811889734275533 0.049185282791805326 0.031821804159318283 0.038122528950728561 0.057368587303164992 -0.027151014432981093 0.054860986768915404 0.056797884571578354 -0.045767893155055223 0.025763498371538775 0.0046394334804739541 0.055891953577960146 0.0083140639829617589 -0.052007624682693578 -0.0028706593351058365 0.00023694410678059817 0.0070870615984867102 0.015769178445085533 0.060614020322498831 0.036224917686673651 0.00017182111949201292 0.061178374359972421 0.03833746048355844 0.055155132909095343 0.020733606805119667 0.036740475952650342 0.061681217917779564 0.016193550020727844 -0.05858399903348286
leaf_weight=1371.2366780492594 155.65369736589491 1466.3897702270915 441.3020790907467 341.90606229908008 215.60250793518208 44.095472372806398 1677.1366358183441 125.6018930785358 214.12543454986007 62.05113560542668 558.27969843921892 697.42724060593173 227.60172278892423 1040.1515476013301 71.544109149435826 63.827145517392637 7.1532401256263238 274.64976622954418 189.83119207797426 1249.7668245802706 544.82449567411095 36.030175358057022 10.732148740440605 97.228811267770652 28.551618091762066 179.66110734082758 87.225561520084739 879.90874950913712 6.7615484967827797 1208.7770815148251
leaf_count=91873 2953 147031 33660 7286 6623 4052 59745 1051 6455 6919 6835 23698 4299 25519 8849 9293 68 6756 14582 49793 3359 375 108 2340 139 1543 525 8391 60 105723
internal_value=5.38306e-05 -0.0131961 0.00119263 -0.0227063 0.0418511 -0.045775 -0.0394139 0.0391803 0.0431256 0.00909651 0.0282132 0.0125681 0.0527099 0.0141426 -0.0515559 -0.0459422 0.0166222 0.0196191 0.0237377 0.0576499 0.0397621 0.00927974 -0.0011472 0.0511199 0.0380963 0.0173303 0.0415423 0.0605218 0.00863028 -0.0582409
internal_weight=13575 10141 7034.53 4430.43 2604.1 3106.52 3048.37 3433.99 2922.22 295.978 1144.28 913.03 1777.94 1382.06 2810.54 1530.22 511.769 832.929 233.927 1691.07 670.426 382.077 166.386 311.354 129.692 215.691 115.777 1107.51 13.9148 1280.32
internal_count=639903 594646 298197 184423 113774 296449 151618 45257 39486 25553 22386 30321 17100 32805 270896 156324 5771 13591 18634 83453 4410 4979 3061 8795 792 1918 664 12690 128 114572
is_linear=0
shrinkage=0.05


Tree=19
num_leaves=31
num_cat=0
split_feature=3 0 2 2 6 6 6 7 6 2 0 7 2 2 6 2 0 6 6 6 2 2 6 2 2 5 2 8 0 5
split_gain=2556.87 2088.36 827.995 704.173 803.169 674.656 313.749 257.548 239.149 154.487 129.259 96.6606 75.871 65.6208 60.7584 55.5929 53.3976 51.2561 46.7238 44.5462 38.8861 17.0222 10.3319 10.1758 10.0917 9.68551 8.98672 6.95185 3.09282 1.71767
threshold=1.0000000180025095e-35 0.16064515709877017 7.5000000000000009 7.5000000000000009 8.5000000000000018 14.500000000000002 21.500000000000004 1.0000000180025095e-35 38.500000000000007 2.5000000000000004 0.096006143838167204 1.0000000180025095e-35 15.500000000000002 15.500000000000002 4.5000000000000009 8.5000000000000018 0.24283374845981601 40.500000000000007 8.5000000000000018 7.5000000000000009 7.5000000000000009 15.500000000000002 4.5000000000000009 1.5000000000000002 15.500000000000002 4.1313459873199472 15.500000000000002 1.0000000180025095e-35 0.054804805666208274 2.3295840024948125
decision_type=2 2 2 2 2 2 2 2 2 2 2 2 2 2 2 2 2 2 2 2 2 2 2 2 2 2 2 2 2 2
left_child=1 3 5 4 9 7 -6 -3 16 -1 14 -7 -10 19 23 18 -4 24 -16 22 -21 -17 -12 28 -5 29 -19 -27 -2 -15
right_child=10 2 8 17 6 11 -8 -9 12 -11 13 -13 -14 25 15 21 -18 26 -20 20 -22 -23 -24 -25 -26 27 -28 -29 -30 -31
leaf_value=-0.058916738274808492 -0.026123489142172357 -0.020780230831266764 -0.045469203582474346 -0.051293292048569673 -0.006401524303102187 0.060312870567111349 0.046693541703126576 0.03321899273263601 0.041488468295763692 -0.029638325172991583 0.016378643368918946 0.030452571989876477 -0.039739316862770671 0.060121985695127458 0.02311011549569051 0.020497895146069686 -0.010820303107924097 -0.0057783090439895522 0.047658049592707662 0.058361313989104817 0.040924306077044593 -0.0021399048395236695 0.03730239680879318 0.022521099572412499 -0.058652659624927078 0.031200320971855308 -0.05312892162588017 0.008159026237922893 -0.0077141115054878695 0.033622128832475166
leaf_weight=846.79068600595929 41.434017110615969 574.32378906337544 511.11179026183527 1071.9570306201786 2206.2216011818382 1219.8128821075807 317.87783338878944 358.04273937962716 151.68922649387423 969.00525408191606 78.449073854833841 351.56375245202798 34.961513955313421 11.200092532439156 358.15613108687103 253.81375180199393 143.06763328875968 66.002265211012855 429.51770358371141 995.59873312478885 484.1602511179517 122.60649665589153 266.91017038188875 20.502198772504926 948.99107083491981 44.176882521729567 11.431911092251537 128.58443953307869 53.740282084792852 24.759312716952991
leaf_count=63422 1182 20618 59710 114414 84644 48011 29476 7022 11527 35960 859 9044 4018 828 3139 3958 12882 5181 4467 11000 8481 3447 1625 221 87246 933 1471 3177 1059 881
internal_value=5.19613e-05 -0.0128056 0.0192436 -0.0294555 -0.0179521 0.0336598 0.000291059 -3.16684e-05 -0.0236722 -0.0433074 0.0380093 0.0536472 0.0261815 0.0458483 0.0255344 0.0289688 -0.0379133 -0.0532346 0.0365242 0.0488882 0.0526753 0.0131181 0.0325945 -0.00895952 -0.0547652 0.0191895 -0.013129 0.0141528 -0.0158755 0.0427244
internal_weight=13096.5 9782.85 3344.57 6438.28 4339.9 2503.74 2524.1 932.367 840.83 1815.8 3313.61 1571.38 186.651 2033.84 1279.77 1164.09 654.179 2098.38 787.674 1825.12 1479.76 376.42 345.359 115.676 2020.95 208.721 77.4342 172.761 95.1743 35.9594
internal_count=639903 594646 172832 421814 213502 84695 114120 27640 88137 99382 45257 57055 15545 27784 17473 15011 72592 208312 7606 21965 19481 7405 2484 2462 201660 5819 6652 4110 2241 1709
is_linear=0
shrinkage=0.05


Tree=20
num_leaves=31
num_cat=0
split_feature=3 2 6 7 7 6 2 6 2 6 2 4 2 5 5 6 2 2 2 1 1 6 5 2 5 5 5 5 2 6
split_gain=2221.93 1579.64 2392.54 950.295 420.261 348.516 212.036 110.258 143.053 101.051 79.8239 75.8816 43.2063 35.4443 35.1515 34.918 29.2498 20.0344 19.1585 18.5358 4.58298 3.87278 3.62486 3.10165 2.76028 1.04938 1.03074 0.568012 0.550361 0.336701
threshold=1.0000000180025095e-35 7.5000000000000009 14.500000000000002 1.0000000180025095e-35 1.0000000180025095e-35 38.500000000000007 2.5000000000000004 5.5000000000000009 7.5000000000000009 9.5000000000000018 15.500000000000002 1.5000000000000002 15.500000000000002 3.7230564355850224 3.2189975976943974 34.500000000000007 1.5000000000000002 2.5000000000000004 15.500000000000002 0.24505520612001422 0.36073699593544012 42.500000000000007 2.837705254554749 2.5000000000000004 3.6783293485641484 4.0236132144927987 1.5353442430496218 1.8103719949722292 2.5000000000000004 37.500000000000007
decision_type=2 2 2 2 2 2 2 2 2 2 2 2 2 2 2 2 2 2 2 2 2 2 2 2 2 2 2 2 2 2
left_child=1 2 3 6 17 12 -1 16 9 19 21 24 15 -6 -5 -3 20 -4 -13 -9 25 -7 27 -11 -10 -2 -22 -18 -24 -14
right_child=7 5 4 14 13 10 -8 8 11 23 -12 18 29 -15 -16 -17 22 -19 -20 -21 26 -23 28 -25 -26 -27 -28 -29 -30 -31
leaf_value=-0.052776047084229498 0.0027824231333094807 -0.045361369590231015 0.046597594906640949 0.029148098832867387 0.020777139119824747 0.013934881573344746 -0.025623026072471335 0.031094106291900028 0.056663561153481118 0.052576296054622378 -0.044954543166294325 0.024056936584495509 -0.057198664718769665 2.7324599646037226e-05 0.0091644551830546619 -0.0044681782569868126 0 0.059817729922151931 0.0084752330665010863 0.052317574878655543 -0.0020062650487447284 0.027914298442282021 0.028912497786466703 0.060406761321053576 0.042334827174726308 0.014606453720700026 -0.010426954887419855 0.01727724561102845 0.040245090754936395 -0.043658131839029786
leaf_weight=1284.3488971397746 40.178290590643883 1306.7722864367097 404.94978081294539 278.26697685207182 555.49889261612407 82.542485665615459 1639.5381911017466 644.73923070169985 141.57443546432478 207.27678167747217 53.612919387574948 551.27069897204638 1120.8690774222778 327.52609333241708 1057.0431180810556 54.777361545966414 6.0265880897641209 1136.726266076781 310.11071590094798 124.86505272239447 73.571942273527384 138.80896516635403 29.370297005400062 782.98538812296465 60.865446615731344 37.465538192540407 75.486426783725619 15.589498128741978 48.824869144707918 16.313484451704426
leaf_count=91866 411 146769 33681 9149 20156 8883 59499 4548 6007 4254 6963 7442 112269 10195 23764 9261 70 49880 8034 1151 1427 9641 262 8333 949 347 1485 146 285 2206
internal_value=-7.93055e-05 -0.0121941 0.00096952 -0.0216 0.0406133 -0.0439112 -0.037559 0.0362864 0.0394675 0.0482223 0.00948681 0.024964 -0.0497899 0.0130908 0.013342 -0.0437221 0.00874288 0.0563647 0.0184613 0.0345757 -0.0011804 0.022767 0.0312251 0.0588001 0.052495 0.00860882 -0.00632472 0.0123674 0.0362628 -0.0570281
internal_weight=12607.8 9457.59 6683.9 4259.2 2424.7 2773.7 2923.89 3150.2 2823.69 1759.87 274.964 1063.82 2498.73 883.025 1335.31 1361.55 326.513 1541.68 861.381 769.604 226.702 221.351 99.8113 990.262 202.44 77.6438 149.058 21.6161 78.1952 1137.18
internal_count=639333 594182 298190 184278 113912 295992 151365 45151 40718 18286 25487 22432 270505 30351 32913 156030 4433 83561 15476 5699 3670 18524 763 12587 6956 758 2912 216 547 114475
is_linear=0
shrinkage=0.05


Tree=21
num_leaves=31
num_cat=0
split_feature=3 0 1 6 0 4 4 6 0 6 6 1 6 6 6 4 4 6 6 0 1 6 0 6 6 6 0 5 6 5
split_gain=2032.27 1832.07 538.653 516.134 257.873 213.589 194.359 134.714 130.876 117.856 108.511 90.5277 62.0804 60.4443 59.3841 54.3717 53.5813 51.1486 34.8908 23.5864 20.2094 12.9818 15.9747 11.0372 6.70434 5.93449 4.6881 3.97549 3.09448 2.30581
threshold=1.0000000180025095e-35 0.16064515709877017 0.41494706273078924 15.500000000000002 0.084523811936378493 1.5000000000000002 2.5000000000000004 6.5000000000000009 0.12660256773233416 11.500000000000002 10.500000000000002 1.0000000180025095e-35 6.5000000000000009 5.5000000000000009 21.500000000000004 2.5000000000000004 1.5000000000000002 32.500000000000007 8.5000000000000018 0.028991596773266796 0.36073699593544012 11.500000000000002 0.1863425895571709 4.5000000000000009 32.500000000000007 5.5000000000000009 0.040833333507180221 2.3295840024948125 19.500000000000004 10.964343547821047
decision_type=2 2 2 2 2 2 2 2 2 2 2 2 2 2 2 2 2 2 2 2 2 2 2 2 2 2 2 2 2 2
left_child=1 4 5 13 11 10 7 -6 12 -7 -3 14 20 -4 -1 19 18 -13 23 -14 27 -18 -23 -10 -5 -22 -17 -2 -8 -20
right_child=8 2 3 24 6 9 28 -9 16 -11 -12 17 15 -15 -16 26 21 -19 29 -21 25 22 -24 -25 -26 -27 -28 -29 -30 -31
leaf_value=-0.030724676583218452 0.00028239810372222688 -0.012257544354732353 -0.070136940738338108 0.061950513178870764 -0.043853129173203081 0.015919175154574854 -0.04401369455142113 -0.010206547828786446 0.015250019041549137 -0.038867226649049243 0.021198750763869078 -0.057129257727459831 0.014738810410001314 -0.010571958335941531 -0.055925171955658042 -0.010157363128794296 0.052095466074130709 0.030574092105960661 0.059148255682437506 0.037260300807015867 -0.013422461172474235 0.01915456559806707 0.04257030324042848 0.042218605812643778 0.053479007680822491 0.045707297997951014 0.0095705763475166811 0.018213036287335754 -0.057929963122106048 -0.0058459480753918283
leaf_weight=1879.6464595141661 37.759554713964462 323.10030626074877 59.446508216205984 595.64447240404843 336.37343203276396 130.59806413357728 62.678677396848798 2559.7085864523469 48.763791346922517 390.57685678567213 964.20439083772726 657.85116284397373 132.65209285373567 148.84798639331711 268.34170762034046 37.058764494024217 63.578328292816877 16.686092782489141 707.65927974268561 1046.3704340076947 104.32633185200393 216.59649112662009 111.78244869073387 195.76214560121298 477.3888810146309 3.9070276170969001 148.83266637288034 185.89942753873765 255.49948997842148 1.1409537941217411
leaf_count=103536 445 10589 2897 20097 19759 2655 6529 178451 594 41726 66119 57939 1488 6258 29763 932 438 1467 12551 14598 2378 3826 1857 1232 22458 55 3025 1724 23939 8
internal_value=-7.38514e-05 -0.0118714 0.0194385 0.0442338 -0.0278978 0.00186065 -0.0182065 -0.0141231 0.0353145 -0.025127 0.0127962 -0.0389272 0.0260601 -0.0277228 -0.0338875 0.030776 0.0469693 -0.0549313 0.0533839 0.034738 0.00663406 0.0313065 0.0271932 0.036903 0.0582129 -0.0110416 0.00559415 0.0152156 -0.0552776 0.0590325
internal_weight=12168.7 9126.59 3089.81 1281.33 6036.79 1808.48 3214.26 2896.08 3042.09 521.175 1287.3 2822.53 1696.81 208.294 2147.99 1364.91 1345.28 674.537 953.326 1179.02 331.892 391.957 328.379 244.526 1073.03 108.233 185.891 223.659 318.178 708.8
internal_count=639333 594182 172799 51710 421383 121089 228678 198210 45151 44381 76708 192705 24645 9155 133299 20043 20506 59406 14385 16086 4602 6121 5683 1826 42555 2433 3957 2169 30468 12559
is_linear=0
shrinkage=0.05


Tree=22
num_leaves=31
num_cat=0
split_feature=3 2 6 2 6 5 6 6 2 6 4 2 6 2 6 6 6 2 8 1 2 4 8 2 5 5 8 5 5 6
split_gain=1870.65 1362.7 2084.57 624.93 288.502 271.477 249.462 97.2061 139.199 97.9061 70.9481 67.1919 63.113 49.0204 35.8528 34.8738 28.9508 24.7593 22.3251 15.9853 15.938 4.6179 5.27636 3.94242 2.96603 2.75886 2.13323 0.624157 0.57848 0.45382
threshold=1.0000000180025095e-35 7.5000000000000009 14.500000000000002 2.5000000000000004 38.500000000000007 2.4402236938476567 9.5000000000000018 5.5000000000000009 7.5000000000000009 9.5000000000000018 1.5000000000000002 15.500000000000002 4.5000000000000009 15.500000000000002 21.500000000000004 19.500000000000004 34.500000000000007 1.5000000000000002 1.0000000180025095e-35 0.24505520612001422 15.500000000000002 1.0000000180025095e-35 1.0000000180025095e-35 2.5000000000000004 3.6783293485641484 2.837705254554749 1.0000000180025095e-35 4.0236132144927987 2.6817603111267094 37.500000000000007
decision_type=2 2 2 2 2 2 2 2 2 2 2 2 2 2 2 2 2 2 2 2 2 2 2 2 2 2 2 2 2 2
left_child=1 2 3 12 13 15 -5 17 9 19 24 18 -1 16 -7 -4 -3 21 -6 -9 -12 22 -2 -11 -10 28 -27 -23 -19 -15
right_child=7 4 5 6 11 14 -8 8 10 23 20 -13 -14 29 -16 -17 -18 25 -20 -21 -22 27 -24 -25 -26 26 -28 -29 -30 -31
leaf_value=-0.062355154392133107 0.011161233064930061 -0.042997420613944425 0.035293973906982266 -0.02026565735072796 0.055240979492450298 0.0094911296775431336 0.0095783964995157511 0.029341961468195451 0.054856887947365152 0.05054254016319442 0.021949111117534989 -0.044419302437368663 -0.039635303090335063 -0.056431564555269924 0.05787848029440118 0.054540195053303479 -0.0046023724167581553 0.0150364409145159 0.012595759837426394 0.049821792097006087 0.0075692728198425143 0.003800231480103472 -0.011889472689209873 0.059358606118018922 0.039826351165993236 0.050002486896599509 0.028336540800842594 0.013450422013789995 -0.0093372914944495466 -0.041814656057392582
leaf_weight=554.99505651369691 31.228282188996673 1206.9660083931449 294.97698721513734 1617.7216472320724 37.320523602855246 609.57107727528637 1233.6307563643495 601.22014224622399 133.15144236839842 198.42439692624612 524.72791014172253 48.94942150946008 695.98354494842351 1012.50423546409 40.44479544206115 1284.8406603938711 51.615554862110002 18.078222252428535 168.86613503199624 115.61514302529395 307.54648265572177 35.976309427991509 111.85458949021995 710.44773600948974 57.948454392317217 16.776626814156771 56.735221464186907 35.373451381921768 2.1948436871170989 15.07615929856547
leaf_count=42909 621 146769 14009 56731 4017 21228 33776 4548 6007 4254 7442 6963 50862 112269 5611 73064 9261 189 14507 1151 8034 411 2291 8333 949 107 440 347 27 2206
internal_value=-6.92428e-05 -0.0115477 0.000865311 -0.020284 -0.0424733 0.0397727 -0.00735253 0.0343666 0.0374588 0.0465566 0.0229857 0.00792544 -0.0497398 -0.0481005 0.0125517 0.0509621 -0.0414292 0.00775574 0.0204539 0.0326845 0.0166491 -0.00160785 -0.00680241 0.0574682 0.050441 0.0291129 0.033653 0.00871445 0.0119957 -0.0562424
internal_weight=11830.8 8873.46 6332.16 4102.33 2541.3 2229.83 2851.35 2957.3 2649.08 1625.71 1023.37 255.136 1250.98 2286.16 650.016 1579.82 1258.58 308.218 206.187 716.835 832.274 214.433 143.083 908.872 191.1 93.7849 73.5118 71.3498 20.2731 1027.58
internal_count=639333 594182 298190 184278 295992 113912 90507 45151 40718 18286 22432 25487 93771 270505 26839 87073 156030 4433 18524 5699 15476 3670 2912 12587 6956 763 547 758 216 114475
is_linear=0
shrinkage=0.05


Tree=23
num_leaves=31
num_cat=0
split_feature=3 0 4 6 6 4 0 4 0 6 6 6 4 4 6 0 6 4 0 6 6 6 0 6 8 0 5 5 4 0
split_gain=1717.65 1631.55 406.299 434.433 243.472 278.528 183.017 182.26 130.567 99.8896 78.3829 57.4353 52.8837 46.7309 32.2859 21.0639 19.662 15.3353 11.2716 12.591 9.60221 8.52569 7.24914 5.2911 4.53336 4.09778 3.01612 2.72847 0.943888 0.551191
threshold=1.0000000180025095e-35 0.16064515709877017 1.5000000000000002 10.500000000000002 4.5000000000000009 2.5000000000000004 0.067424245178699507 1.0000000180025095e-35 0.12660256773233416 19.500000000000004 4.5000000000000009 6.5000000000000009 1.5000000000000002 2.5000000000000004 8.5000000000000018 0.029857398010790352 11.500000000000002 1.0000000180025095e-35 0.1863425895571709 11.500000000000002 5.5000000000000009 4.5000000000000009 0.24662162363529208 19.500000000000004 1.5000000000000002 0.040833333507180221 24.501592636108402 10.964343547821047 1.0000000180025095e-35 0.14119601994752887
decision_type=2 2 2 2 2 2 2 2 2 2 2 2 2 2 2 2 2 2 2 2 2 2 2 2 2 2 2 2 2 2
left_child=1 4 3 10 28 6 -6 -5 11 16 -3 17 14 15 21 -13 -4 20 19 -14 -2 -10 -11 -7 -19 -15 -20 -16 -1 -30
right_child=8 2 9 7 5 23 -8 -9 12 22 -12 13 18 25 27 -17 -18 24 26 -21 -22 -23 -24 -25 -26 -27 -28 -29 29 -31
leaf_value=-0.062907454367306576 -0.013931418156284146 -0.06146136459473503 0.014132945357169061 0.052243039792113012 -0.033543043028412343 -0.045497413106118462 -0.012464685542316445 0.021531045774041562 0.01615681920208278 -0.049524634393097268 -0.006611713132585257 0.013236761326569299 0.048146680584101639 -0.0097655226889939162 0.058036791547944694 0.035024047789806355 -0.014521661000549425 0.017930307901995634 0.044949002637328081 0.018195888574088982 0.048624367017232745 0.040694976000675905 -0.026054715467004594 -0.058008656987360178 0.0020832762348999647 0.0089151770089980278 0.018339805754901711 -0.011770384788193441 -0.054616665909336171 -0.028541704125042523
leaf_weight=406.54608851158991 102.82085393182933 78.193997292313725 122.86638909511385 1044.9861722884525 1553.4113821148276 122.01658916147426 3060.4824734106223 901.55836527661086 46.055683055892587 197.35417569148558 380.77898872253718 126.8392333308002 42.558071601204574 36.025165663100779 653.68926909542643 982.5710271412172 115.79550289679901 141.69525112956762 109.1396404011175 206.88531828900159 6.0072345547378054 181.0205753352493 42.898582171510498 486.72924985666759 67.42906909994781 146.25769954733551 13.595702361315487 1.1288026571273793 45.382421491201967 4.8580796793103209
leaf_count=34333 2378 4284 2655 45859 96386 13621 222592 65379 594 27418 12896 1506 321 932 12551 14580 9578 1430 1796 3826 75 1232 4730 50159 719 3025 178 8 3957 335
internal_value=-7.03168e-05 -0.0112805 0.0193399 0.0277135 -0.0268331 -0.0237654 -0.0195653 0.0380303 0.0334478 -0.0226936 -0.0160239 0.024005 0.0455497 0.0286903 0.0522352 0.0325447 0.00020792 0.0049399 0.0296458 0.023412 -0.0102261 0.0357865 -0.0454175 -0.0555485 0.0128617 0.00517928 0.0421284 0.0578999 -0.0618324 -0.0524999
internal_weight=11427.6 8563.86 2884.43 2405.52 5679.43 5222.64 4613.89 1946.54 2863.72 478.915 458.973 1609.65 1254.07 1291.69 881.894 1109.41 238.662 317.952 372.179 249.443 108.828 227.076 240.253 608.746 209.124 182.283 122.735 654.818 456.787 50.2405
internal_count=639333 594182 172799 128418 421383 382758 318978 111238 45151 44381 17180 24645 20506 20043 14385 16086 12233 4602 6121 4147 2453 1826 32148 63780 2149 3957 1974 12559 38625 4292
is_linear=0
shrinkage=0.05


Tree=24
num_leaves=31
num_cat=0
split_feature=0 2 6 2 6 6 2 6 7 6 2 0 5 0 0 7 0 1 1 6 0 0 0 0 6 0 5 0 5 5
split_gain=1347.9 477.093 673.152 439.198 338.166 179.367 164.368 146.064 209.573 129.109 79.5654 64.3419 55.8113 55.1062 30.1074 24.5948 16.6942 15.6992 13.8966 7.48806 6.16799 4.82593 1.75019 1.16051 1.19841 0.711657 0.144232 0.141633 0.109184 0.0933092
threshold=0.16064515709877017 7.5000000000000009 8.5000000000000018 15.500000000000002 18.500000000000004 4.5000000000000009 7.5000000000000009 19.500000000000004 1.0000000180025095e-35 4.5000000000000009 15.500000000000002 0.20638945698738101 2.9710532426834111 0.12158167362213136 0.24283374845981601 1.0000000180025095e-35 0.051956815645098693 0.36073699593544012 0.36073699593544012 40.500000000000007 0.2788888961076737 0.073622401803731932 0.029857398010790352 0.30901856720447546 37.500000000000007 0.18983269482851031 18.615054130554203 0.1490740776062012 2.0435078144073491 5.2706604003906259
decision_type=2 2 2 2 2 2 2 2 2 2 2 2 2 2 2 2 2 2 2 2 2 2 2 2 2 2 2 2 2 2
left_child=1 2 5 4 9 17 15 8 -4 18 16 -11 -7 -9 -8 -6 22 -1 -2 -18 25 -12 -3 29 -25 26 -5 -23 -27 -22
right_child=3 10 7 20 6 12 14 13 -10 11 21 -13 -14 -15 -16 -17 19 -19 -20 -21 23 27 -24 24 -26 28 -28 -29 -30 -31
leaf_value=-0.026201991767601379 0.0039562483080775148 -0.038140992510552855 -0.012973213507525503 -0.034609548758521944 0.058271706115882144 -0.027658241468929458 0.0094428575377965927 0.01698587946028755 0.018041227199380568 0.0095397556283969495 -0.047120763147217859 0.02984865802452917 -0.0088444483266270392 0.054617266531073419 0.042221832730817366 0.031919299628226823 -0.020728300133123267 -0.050815620273478794 -0.047175854603519266 -0.0021213495863233365 -0.018028011715031888 -0.039653080448465085 -0.029758631564136662 -0.0037607835431062485 0.03430219588883817 -0.036288253268961033 -0.042738348757244471 -0.034733809664695213 -0.029233886959676159 -0.0067499729752751626
leaf_weight=77.224296330474317 15.391004895325748 100.85898488710518 808.5406381530338 101.75517582320026 1113.0153195182211 614.01497906178702 273.26752735732225 160.02800979662788 1666.015013684686 881.01397553112474 310.8255802647036 701.73376494771219 1105.0816757672001 251.96587698116491 94.212079031443864 99.329884238904924 956.17492737089196 509.04649780271575 86.365765631664544 58.076167811384948 7.6124805113431666 584.90155735506414 275.52616895610117 5.3557447356870389 2.6154655376667506 23.911765406272025 25.876716568134725 69.43603359797271 141.17818257174804 5.9684146598447114
leaf_count=4615 620 7830 36960 11854 49987 27025 33999 19564 47762 28813 29906 20591 38434 18153 10081 2535 92904 36961 3982 5386 1048 58276 22455 686 277 3510 2075 7162 15345 537
internal_value=-7.29658e-05 -0.0120565 -0.00358663 0.0251985 0.0306347 -0.0237304 0.047251 0.0125009 0.00790492 0.0150386 -0.0307162 0.0185537 -0.0155732 0.0400508 0.0179061 0.0561308 -0.0230384 -0.0476071 -0.0394116 -0.0196694 -0.0312098 -0.0417558 -0.0320657 -0.00499129 0.00942547 -0.0331113 -0.036457 -0.0391656 -0.0303923 -0.0138424
internal_weight=11126.3 7547.72 5191.92 3578.6 3264.33 2305.37 1579.82 2886.55 2474.56 1684.5 2355.8 1582.75 1719.1 411.994 367.48 1212.35 1390.64 586.271 101.757 1014.25 314.274 965.163 376.385 21.5521 7.97121 292.722 127.632 654.338 165.09 13.5809
internal_count=639333 453393 229474 185940 150608 107035 96602 122439 84722 54006 223919 49404 65459 37717 44080 52522 128575 41576 4602 98290 35332 95344 30285 2548 963 32784 13929 65438 18855 1585
is_linear=0
shrinkage=0.05


Tree=25
num_leaves=31
num_cat=0
split_feature=3 0 2 6 2 6 6 2 2 0 6 6 6 4 6 6 2 6 2 6 0 2 2 2 6 0 2 0 5 2
split_gain=1663.12 1433.44 512.08 607.779 494.736 524.464 183.115 133.552 117.756 115.416 101.56 81.0636 76.8348 57.377 55.4365 51.9067 63.2687 38.7613 27.9782 26.2012 16.1761 13.1887 11.6836 10.1366 8.38388 6.44133 5.5063 4.74836 2.79442 0.107697
threshold=1.0000000180025095e-35 0.16064515709877017 7.5000000000000009 8.5000000000000018 7.5000000000000009 12.500000000000002 21.500000000000004 2.5000000000000004 15.500000000000002 0.1012820526957512 4.5000000000000009 34.500000000000007 19.500000000000004 1.5000000000000002 9.5000000000000018 6.5000000000000009 7.5000000000000009 40.500000000000007 7.5000000000000009 9.5000000000000018 0.18469785153865817 2.5000000000000004 15.500000000000002 15.500000000000002 4.5000000000000009 0.29864865541458135 15.500000000000002 0.035098522901535041 3.1437423229217534 7.5000000000000009
decision_type=2 2 2 2 2 2 2 2 2 2 2 2 2 2 2 2 2 2 2 2 2 2 2 2 2 2 2 2 2 2
left_child=1 2 3 7 5 10 -5 -1 11 15 -3 -6 -7 14 24 21 19 22 -15 -17 -20 27 -4 -18 -11 -10 -19 -2 -23 -16
right_child=9 4 17 6 8 12 -8 -9 25 13 -12 -13 -14 18 29 16 23 26 20 -21 -22 28 -24 -25 -26 -27 -28 -29 -30 -31
leaf_value=-0.055917268145182268 -0.016593614057864529 -0.060450714344841221 -0.047611175742922347 -0.0042642456025126533 -0.019267056678318458 0.03176623304568843 0.04261982519137883 -0.026905314185950342 -0.050610274503540401 0.016653399731201172 0.0011989649652250076 0.026775236194545755 0.056329280892597568 0.059483545526518203 0.058522189616983723 0.028240099330096271 0.017453470578291434 -0.0054911052918950078 0.017278458823261515 0.05076181594617131 0.039234250223261873 0.0052175661601353771 -0.056693947022489435 0.00017815838275919043 0.03722268066270374 -0.0063037807882808192 -0.049561519418918808 0.00035683963572230343 0.029223876039206054 0.05374779622059192
leaf_weight=709.47905931051355 59.891796594485641 74.245371645316482 829.3769048484246 1986.0811677390084 296.33604800763715 498.08516811135632 232.15039869175234 905.65881069679745 216.86462182154355 60.105222782120109 627.31614049148629 140.47797852327858 901.02581816079328 61.736106181517243 544.26655037235469 287.25148019287735 282.7222559426591 54.795575417439977 305.78763166198041 241.20768067339668 117.04197748115985 18.315434522926807 688.8668983974494 122.12815315388434 352.90679417736828 8.9531434605014493 7.7497461293824008 129.00049038045108 40.676412573084235 137.0315176062868
leaf_count=63474 1455 4280 114635 84593 37932 15496 29373 35944 31426 795 18935 16975 46497 436 9008 2597 5066 5125 6048 3419 2007 183 87400 3672 2583 1299 1472 2054 317 5744
internal_value=6.27044e-05 -0.0112642 -0.0262192 -0.0163389 0.0180349 0.0299165 0.000648681 -0.0396658 -0.0196189 0.0336196 -0.00535663 -0.00443489 0.0476029 0.0424679 0.0488231 0.0217749 0.0271744 -0.0501628 0.0280702 0.0385675 0.0234069 0.00141151 -0.0517529 0.0122611 0.0342651 -0.0488935 -0.0113808 -0.00502083 0.0219611 0.0576094
internal_weight=10937.5 8177.46 5414.16 3833.37 2763.3 2100.67 2218.23 1615.14 662.632 2760.07 701.562 436.814 1399.11 1578.88 1094.31 1181.19 933.31 1580.79 484.566 528.459 422.83 247.884 1518.24 404.85 413.012 225.818 62.5453 188.892 58.9918 681.298
internal_count=640240 594856 422016 213384 172840 85208 113966 99418 87632 45384 23215 54907 61993 26621 18130 18763 14754 208632 8491 6016 8055 4009 202035 8738 3378 32725 6597 3509 500 14752
is_linear=0
shrinkage=0.05


Tree=26
num_leaves=31
num_cat=0
split_feature=3 0 2 6 2 6 2 6 0 2 6 6 1 6 2 2 6 6 6 2 2 2 2 6 0 1 0 8 2 0
split_gain=1524.27 1314.97 484.198 580.121 441.996 503.034 186.263 137.081 110.567 109.48 108.168 60.844 55.6039 49.9061 70.0357 44.2018 37.502 32.0798 22.5938 29.6076 16.7273 12.1108 11.9983 6.2588 6.04924 5.76711 5.47614 5.37855 5.0416 1.68763
threshold=1.0000000180025095e-35 0.16064515709877017 7.5000000000000009 9.5000000000000018 7.5000000000000009 14.500000000000002 2.5000000000000004 21.500000000000004 0.11834733933210374 15.500000000000002 4.5000000000000009 34.500000000000007 0.41494706273078924 6.5000000000000009 7.5000000000000009 15.500000000000002 40.500000000000007 9.5000000000000018 8.5000000000000018 7.5000000000000009 2.5000000000000004 15.500000000000002 15.500000000000002 4.5000000000000009 0.29864865541458135 0.36073699593544012 0.20550528168678286 1.0000000180025095e-35 15.500000000000002 0.054804805666208274
decision_type=2 2 2 2 2 2 2 2 2 2 2 2 2 2 2 2 2 2 2 2 2 2 2 2 2 2 2 2 2 2
left_child=1 2 3 6 5 10 -1 -5 13 11 -3 -6 -7 20 17 18 22 -15 23 -20 25 -16 -4 -10 -11 -2 27 -17 -18 -22
right_child=8 4 16 7 9 12 -8 -9 15 24 -12 -13 -14 14 21 26 28 -19 19 -21 29 -23 -24 -25 -26 -27 -28 -29 -30 -31
leaf_value=-0.055064986440578889 0.0049121490523190833 -0.059274620717719939 -0.04696151471098841 -0.00037972101485674178 -0.016874743733277256 0.035124692718665737 -0.023064545335131543 0.041597455593468557 0.015889853056429062 -0.049960360246258689 0.0049740720625362335 0.024123696520086352 0.057941431510348085 0.028308063785754619 0.018720985541060383 0.031010305543784002 -0.005042680934803985 0.051167394544115931 0.057238713552306558 0.038131016197171234 0.015621092281246593 0.0015136005057529095 -0.056443276847140268 0.036801555886404436 -0.0064144994298628846 -0.011401060786734266 0.036149704727881149 0.0060222637455085368 -0.048823010645386578 0.031944909913010848
leaf_weight=707.45114399431623 118.65879206545651 71.024028562940657 780.12606504178984 1544.6572211243474 290.51255491271149 415.83935862213548 1278.0297979629831 221.96442550040229 46.631136244162917 202.65411447577935 778.47897176460538 130.79421977596212 770.6839950625872 340.99461075011641 319.94747612984793 28.539249168941751 52.775106084685831 285.52938711826573 572.04658326157369 325.14770922629395 30.902677841484547 151.27821874747315 647.12257507909089 189.15243642963469 8.7422150154670799 98.573035644367337 30.73385063756723 87.779540966257628 7.1121084222104392 41.422614512965083
leaf_count=65997 1486 4280 114635 68065 37932 21213 49949 29373 638 31426 23390 16975 36325 3090 6108 784 5125 4450 8815 7232 277 4590 87400 1393 1299 2370 1078 2745 1472 328
internal_value=6.21408e-05 -0.0109621 -0.0255134 -0.0159382 0.0176025 0.0289451 -0.0344802 0.00490188 0.032744 -0.018884 -0.000423366 -0.00412146 0.0499673 0.022944 0.0278136 0.0433483 -0.049655 0.0387663 0.0466992 0.0503447 0.00444928 0.0132149 -0.0512824 0.0327294 -0.0482025 -0.0024765 0.017426 0.0123025 -0.010686 0.025194
internal_weight=10575.3 7907.97 5239.24 3752.1 2668.73 2036.03 1985.48 1766.62 2667.34 632.703 849.503 421.307 1186.52 1387.31 1097.75 1280.03 1487.14 626.524 1132.98 897.194 289.557 471.226 1427.25 235.784 211.396 217.232 147.053 116.319 59.8872 72.3253
internal_count=640240 594856 422016 213384 172840 85208 115946 97438 45384 87632 27670 54907 57538 22699 18238 22685 208632 7540 18078 16047 4461 10698 202035 2031 32725 3856 4607 3529 6597 605
is_linear=0
shrinkage=0.05


Tree=27
num_leaves=30
num_cat=0
split_feature=3 6 4 6 6 1 7 6 6 4 6 5 6 8 6 8 1 1 1 5 6 4 5 8 6 8 4 6 5
split_gain=1391.79 595.883 937.075 540.831 433.6 272.414 230.78 156.443 88.7896 109.859 64.8766 60.018 52.5884 28.2955 24.9655 24.4423 19.6089 13.4176 13.411 10.4639 6.37651 5.34541 5.1952 4.8119 2.59237 2.46475 2.29648 2.18779 0.309749
threshold=1.0000000180025095e-35 8.5000000000000018 1.5000000000000002 11.500000000000002 19.500000000000004 0.41494706273078924 1.0000000180025095e-35 4.5000000000000009 6.5000000000000009 1.5000000000000002 9.5000000000000018 2.8687425851821904 11.500000000000002 1.5000000000000002 21.500000000000004 1.0000000180025095e-35 0.36073699593544012 0.24505520612001422 0.24505520612001422 14.691417694091799 5.5000000000000009 1.0000000180025095e-35 3.0390202999114995 1.5000000000000002 12.500000000000002 1.5000000000000002 1.0000000180025095e-35 9.5000000000000018 3.2957328557968144
decision_type=2 2 2 2 2 2 2 2 2 2 2 2 2 2 2 2 2 2 2 2 2 2 2 2 2 2 2 2 2
left_child=1 7 4 13 6 -6 -3 21 16 10 18 17 27 -4 -5 -13 22 -9 -10 -14 23 -1 26 -18 -12 -24 -2 -11 -23
right_child=8 2 3 14 5 -7 -8 11 9 12 24 15 19 -15 -16 -17 20 -19 -20 -21 -22 28 25 -25 -26 -27 -28 -29 -30
leaf_value=-0.062215841561362131 0.047932177229984274 -0.022876558157775822 0.012277962999632172 -0.0395205629825051 0.0036834662857292326 0.049264176867668451 0.011322292373842503 -0.045366210272454709 0.026400488379624193 0.058229235041440147 0.047589850639257421 -0.0044811169096005627 0.021356757933242113 -0.0088371458846987216 -0.052828456256373862 -0.02377760024838807 -0.00058065411856049259 -0.024156006784140857 0.048270500751925821 0.0090316318015617684 0.045740828387972568 -0.051005832575094251 0.026680216627091087 -0.020923970263956333 0.055852857996968867 0.013852673085083859 0.0054258799704951267 0.04265192087374127 -0.038183856547142118
leaf_weight=413.65254363138229 2.8739775829017153 786.46464947656204 527.65068492112914 709.89632555449498 494.20594337663351 974.95687619986711 1321.3924474588857 383.93093571905047 376.65392074733973 34.200933109968901 154.41463706828654 213.95308572717477 433.44028354368493 226.09979344077874 733.84576518299582 717.45217034011148 89.306351533159614 96.345100294798613 88.052201259881258 290.46050895331427 5.4079861119389525 22.107073696795851 128.42978371307254 43.002999119460583 631.4320437762799 58.323842504993081 76.518762560561299 164.31374116288498 31.213642367860302
leaf_count=38092 31 44915 14580 88048 83796 66934 64644 19056 3138 221 1818 9359 9592 7334 111980 32436 1898 8835 1023 5508 80 2029 1184 987 16907 598 914 1485 2818
internal_value=5.01357e-05 -0.010651 -0.00269114 -0.0283861 0.0130946 0.0339413 -0.0014377 -0.0351076 0.0318302 0.035832 0.0454929 -0.026786 0.0227113 0.00593585 -0.0463043 -0.0193552 0.0102685 -0.0411513 0.0306026 0.0164279 -0.00500781 -0.0601979 0.0181865 -0.00728414 0.0542669 0.0227485 0.00731752 0.0455003 -0.0440173
internal_weight=10230 7653.17 5774.51 2197.49 3577.02 1469.16 2107.86 1878.65 2576.83 2172.97 1250.55 1411.68 922.415 753.75 1443.74 931.405 403.864 480.276 464.706 723.901 137.717 466.973 266.146 132.309 785.847 186.754 79.3927 198.515 53.3207
internal_count=640240 594856 482231 221942 260289 150730 109559 112625 45384 39692 22886 69686 16806 21914 200028 41795 5692 27891 4161 15100 2965 42939 2727 2885 18725 1782 945 1706 4847
is_linear=0
shrinkage=0.05


Tree=28
num_leaves=31
num_cat=0
split_feature=0 2 6 2 6 6 2 6 7 6 2 0 0 0 0 7 0 8 1 1 0 8 0 8 0 0 0 6 5 8
split_gain=1038.56 316.347 515.099 309.199 275.936 151.913 151.082 132.34 186.892 99.1948 74.6062 59.3577 57.2873 55.9318 34.1674 29.3829 15.213 15.7073 13.746 13.2888 6.50637 4.10358 3.7554 2.73167 1.20125 1.15383 0.876734 0.666997 0.532571 0.262057
threshold=0.15894736349582675 7.5000000000000009 8.5000000000000018 15.500000000000002 18.500000000000004 4.5000000000000009 7.5000000000000009 16.500000000000004 1.0000000180025095e-35 4.5000000000000009 15.500000000000002 0.21680375933647159 0.054804805666208274 0.12158167362213136 0.24283374845981601 1.0000000180025095e-35 0.051956815645098693 1.0000000180025095e-35 0.36073699593544012 0.36073699593544012 0.2788888961076737 1.5000000000000002 0.073622401803731932 1.0000000180025095e-35 0.026671408675611023 0.20638945698738101 0.30901856720447546 37.500000000000007 2.6817603111267094 1.0000000180025095e-35
decision_type=2 2 2 2 2 2 2 2 2 2 2 2 2 2 2 2 2 2 2 2 2 2 2 2 2 2 2 2 2 2
left_child=1 2 5 4 9 18 15 8 -4 19 16 -11 -7 -9 -8 -6 24 -18 -1 -2 23 22 -12 28 -3 -25 29 -28 -5 -22
right_child=3 10 7 20 6 12 14 13 -10 11 21 -13 -14 -15 -16 -17 17 -19 -20 -21 26 -23 -24 25 -26 -27 27 -29 -30 -31
leaf_value=-0.024914959255496937 0.0073425743029812019 -0.03491854538679464 -0.015954859695596898 -0.030773853149647559 0.057392547537166584 -0.027363153881751836 0.0047933244303288375 0.015964848065085267 0.015973759833459895 0.010368790956676225 -0.04370624986136129 0.030804339570221634 -0.0076010029615329157 0.045750818163964313 0.042394301119026416 0.028778223468684236 -0.0031241229054350707 -0.020018528773795206 -0.049151182373570038 -0.044836638582063319 0.0038287826408764541 -0.045497831523035562 -0.034227392700728512 -0.035376491692140292 -0.027273922390418988 -0.026462608546026379 0.0012871964968074611 0.03279734232906182 -0.016348388446986949 -0.011829521991084731
leaf_weight=70.068070096196607 14.183926649158819 86.555607172253076 723.75681383580377 9.4180768395744945 896.94419568002922 580.21322477888316 231.81202430000121 324.56533635032247 1247.4680418750504 1054.1998355755641 172.0698137851432 537.1423155044904 999.53898528439458 308.72967421771318 81.478167355286132 102.24754211732943 173.40820680455363 683.25425930469646 453.81957575725392 75.7349634738639 2.8775702190250767 256.24892744880344 357.15478804210579 128.97174144914607 238.03477573045529 72.991983633903146 4.8754204956057938 2.4346167824041913 46.159497119908337 8.8278075961279665
